{"learner":{"attributes":{"scikit_learn":"{\"_estimator_type\": \"regressor\"}"},"feature_names":["Carrier","City","Weight","Year","Month","Day","DayOfWeek"],"feature_types":["c","c","float","c","c","c","c"],"gradient_booster":{"model":{"gbtree_model_param":{"num_parallel_tree":"1","num_trees":"100"},"iteration_indptr":[0,1,2,3,4,5,6,7,8,9,10,11,12,13,14,15,16,17,18,19,20,21,22,23,24,25,26,27,28,29,30,31,32,33,34,35,36,37,38,39,40,41,42,43,44,45,46,47,48,49,50,51,52,53,54,55,56,57,58,59,60,61,62,63,64,65,66,67,68,69,70,71,72,73,74,75,76,77,78,79,80,81,82,83,84,85,86,87,88,89,90,91,92,93,94,95,96,97,98,99,100],"tree_info":[0,0,0,0,0,0,0,0,0,0,0,0,0,0,0,0,0,0,0,0,0,0,0,0,0,0,0,0,0,0,0,0,0,0,0,0,0,0,0,0,0,0,0,0,0,0,0,0,0,0,0,0,0,0,0,0,0,0,0,0,0,0,0,0,0,0,0,0,0,0,0,0,0,0,0,0,0,0,0,0,0,0,0,0,0,0,0,0,0,0,0,0,0,0,0,0,0,0,0,0],"trees":[{"base_weights":[1.30792905E-8,7.0413285E-1,-5.16068E-1,1.070846E0,5.001653E-1,-2.2147207E-1,-8.502293E-1,1.463663E0,4.7137663E-1,8.141729E-1,3.2746807E-1,2.7898073E-1,-3.4873304E-1,-6.1442894E-1,-9.5709366E-1,1.941354E0,1.1542771E0,9.1335374E-1,-8.075341E-2,1.1422516E0,6.3588285E-1,5.453278E-1,1.2388536E-1,1.0018145E0,1.2979884E-1,-1.6073547E-1,-5.09116E-1,1.3163301E0,-6.509667E-1,-7.98142E-1,-1.0768588E0,2.4163992E0,1.4232591E0,1.608016E0,9.383197E-1,1.0322617E0,4.0001646E-1,-8.5338223E-1,3.7418517E-1,1.410771E0,7.5037915E-1,7.581246E-1,1.7128555E-1,8.140038E-1,1.7508437E-1,3.8114133E-1,-1.1681686E-1,2.0046499E0,6.162894E-1,6.352183E-1,-8.3980046E-2,-1.819173E-1,3.7254202E0,-2.6256925E-1,-7.7514863E-1,-1.1940984E0,1.7740383E0,-4.715163E-1,-9.452548E-1,-6.859306E-1,-1.0067756E0,-9.801581E-1,-1.180269E0,5.796631E-1,9.136047E-1,5.614038E-1,3.4603918E-1,5.678513E-1,3.3567548E-1,3.7536147E-1,1.7857593E-1,3.7738568E-1,2.4480383E-1,2.5511128E-1,2.296388E-3,2.3989148E-1,-4.1305843E-1,4.3262374E-1,7.90001E-2,4.647514E-1,1.816438E-1,6.191709E-1,2.1647042E-1,3.425516E-1,1.8812008E-1,2.1697997E-1,1.7261301E-3,4.211205E-1,2.0917954E-1,2.3055752E-1,9.4270725E-3,1.921896E-1,7.168411E-2,4.5101598E-2,-6.475875E-2,5.204316E-1,9.4402874E-1,2.4536331E-1,-1.1224058E-1,3.0922434E-1,3.6204776E-3,5.0397355E-2,-1.0341944E-1,-1.8713522E-3,-1.4364244E-1,1.6802092E0,-2.2507098E-1,-3.6052733E-3,-1.227409E-1,-1.6873936E-1,-3.313492E-1,-4.2971605E-1,6.9050527E-1,7.7599806E-1,4.0756443E-1,-8.659626E-2,-2.1517985E-1,-2.0795974E-1,-3.0583233E-1,-9.623572E-2,-2.2001158E-1,-3.1512585E-1,8.3965905E-2,-2.2109054E-1,-3.0786747E-1,-3.6506256E-1,-1.3823839E-1],"categories":[4,1,2,3,4,5,6,7,9,11,12,13,15,16,17,18,19,20,22,23,24,25,26,27,28,29,0,3,10,11,12,15,23,25,28,0,4,5,10,11,0,1,5,6,5,6,8,9,19,20,26,27,0,1,4,6,7,9,10,11,3,4,5,10,11,12,13,14,15,16,17,18,20,21,22,23,24,25,27,28,30,1,0,1,4,2,7,9,10,0,1,2,4,5,6,1,2,3,4,5,6,7,10,3,10,11,12,15,23,25,28,4,6,7,9,11,12,13,14,15,16,17,18,19,20,21,22,23,24,25,26,0,4,5,6,0,1,2,3,4,5,6,9,10,11,0,4,1,7,10,14,15,16,17,18,21,22,23,24,25,29,30,1,10,14,15,17,19,24,0,1,2,3,5,7,8,9,10,11,12,13,14,15,16,17,18,19,20,21,23,24,25,26,27,28,29,4,8,9,10,12,13,14,15,16,17,18,19,20,21,22,23,26,27,28,0,1,3,4,5,9,10,11,12,13,14,15,16,17,18,19,20,21,22,23,24,25,28,29,30,5,6,7,8,9,10,11,12,13,14,15,16,17,18,19,20,21,22,23,24,26,27,28,29,2,3,11,12,15,11,0,11,23,28,2,0,2,4,5,6,7,9,10,11,1,1,2,3,4,5,6,7,8,9,11,12,13,14,15,16,17,18,19,20,22,23,24,25,26,27,28,29,2,4,8,13,14,15,16,17,18,19,20,21,22,23,24,26,27,28,1,8,9,10,13,14,15,16,17,18,19,20,21,22,23,26,29,10,11,1,2,3,4,5,6,7,8,9,10,11,0,1,3,4,5,7,8,9,10,11,12,13,14,15,17,18,19,20,21,23,24,25,26,28,29,0,1,2,5,6,7,8,9,10,11,0,1,2,3,5,7,8,9,10,11,12,14,15,16,17,18,19,20,21,22,23,24,25,26,27,28,29,0,1,2,4,5,6,0,1,2,4,0,1,3,4,4,5,6,7,8,9,10,11,12,13,14,15,16,17,18,19,20,21,22,23,24,25,26,27,28,29,30,2,1,9,16,18,0,1,2,3,6,8,10,11,1,2,4,7,9,10,11,4,5,7,8,9,14,15,16,17,20,21,22,23,0,1,2,3,4,5,6,7,8,9,10,11,12,13,14,15,16,18,19,20,21,22,23,24,28,29,30,6,9,20,1,4,5,6,0,0,1,2,3,4,5,6,8,9,10,11,14,16,17,18,19,21,22,23,25,26,27,28,29,30,7,8,9,10,11,15,16,17,18,19,20,24,25,26,0,2,3,4,5,6,7,8,9,10,11,12,16,17,18,19,20,21,23,24,27,29,0,1,4,6,11],"categories_nodes":[0,1,2,3,4,5,6,7,8,9,10,11,12,13,14,15,16,17,19,20,21,22,23,24,26,28,29,30,31,32,33,34,35,36,37,38,39,40,41,42,43,44,45,46,47,48,49,50,51,52,53,54,55,56,57,58,61],"categories_segments":[0,1,26,35,40,44,52,60,81,82,85,89,95,103,111,131,135,145,147,162,169,196,215,240,264,265,269,270,274,275,284,285,312,330,347,349,360,385,395,422,428,432,436,463,464,465,468,476,483,496,523,526,530,531,556,570,592],"categories_sizes":[1,25,9,5,4,8,8,21,1,3,4,6,8,8,20,4,10,2,15,7,27,19,25,24,1,4,1,4,1,9,1,27,18,17,2,11,25,10,27,6,4,4,27,1,1,3,8,7,13,27,3,4,1,25,14,22,5],"default_left":[1,1,1,1,1,1,1,1,1,1,1,1,1,1,1,1,1,1,0,1,1,1,1,1,1,0,1,0,1,1,1,1,1,1,1,1,1,1,1,1,1,1,1,1,1,1,1,1,1,1,1,1,1,1,1,1,1,1,1,0,0,1,0,0,0,0,0,0,0,0,0,0,0,0,0,0,0,0,0,0,0,0,0,0,0,0,0,0,0,0,0,0,0,0,0,0,0,0,0,0,0,0,0,0,0,0,0,0,0,0,0,0,0,0,0,0,0,0,0,0,0,0,0,0,0,0,0],"id":0,"left_children":[1,3,5,7,9,11,13,15,17,19,21,23,25,27,29,31,33,35,37,39,41,43,45,47,49,51,53,55,57,59,61,63,65,67,69,71,73,75,77,79,81,83,85,87,89,91,93,95,97,99,101,103,105,107,109,111,113,115,117,119,121,123,125,-1,-1,-1,-1,-1,-1,-1,-1,-1,-1,-1,-1,-1,-1,-1,-1,-1,-1,-1,-1,-1,-1,-1,-1,-1,-1,-1,-1,-1,-1,-1,-1,-1,-1,-1,-1,-1,-1,-1,-1,-1,-1,-1,-1,-1,-1,-1,-1,-1,-1,-1,-1,-1,-1,-1,-1,-1,-1,-1,-1,-1,-1,-1,-1],"loss_changes":[6.0705605E4,5.284285E3,9.489973E3,5.9456953E3,2.4619111E3,3.2632207E3,1.137584E3,2.2523086E3,2.4398738E3,9.415996E2,1.2992378E3,1.1200466E3,1.2315806E3,9.947749E2,5.908086E2,1.4720391E3,9.0596094E2,3.385415E2,1.5630823E3,5.956743E2,5.92791E2,1.4075356E3,9.3785455E2,6.8578503E2,9.3056287E2,1.5487921E3,1.4455854E3,3.0316782E2,7.298125E2,3.1205762E2,1.7606055E2,9.460781E2,3.448003E2,4.1370996E2,6.7303125E2,2.189878E2,1.8482364E2,1.4271511E3,3.3095932E2,3.7398877E2,8.585486E1,4.1491992E2,1.9881781E2,5.635459E2,5.0740857E2,2.699779E2,2.070865E2,1.464989E2,2.5686652E2,6.3096155E2,3.9775122E2,9.756573E2,8.602975E2,4.2017535E2,7.4201904E2,3.7450085E1,7.144122E1,3.8590308E2,9.7220215E1,1.5030127E2,2.625371E2,1.0190723E2,2.2486035E2,0E0,0E0,0E0,0E0,0E0,0E0,0E0,0E0,0E0,0E0,0E0,0E0,0E0,0E0,0E0,0E0,0E0,0E0,0E0,0E0,0E0,0E0,0E0,0E0,0E0,0E0,0E0,0E0,0E0,0E0,0E0,0E0,0E0,0E0,0E0,0E0,0E0,0E0,0E0,0E0,0E0,0E0,0E0,0E0,0E0,0E0,0E0,0E0,0E0,0E0,0E0,0E0,0E0,0E0,0E0,0E0,0E0,0E0,0E0,0E0,0E0,0E0,0E0,0E0],"parents":[2147483647,0,0,1,1,2,2,3,3,4,4,5,5,6,6,7,7,8,8,9,9,10,10,11,11,12,12,13,13,14,14,15,15,16,16,17,17,18,18,19,19,20,20,21,21,22,22,23,23,24,24,25,25,26,26,27,27,28,28,29,29,30,30,31,31,32,32,33,33,34,34,35,35,36,36,37,37,38,38,39,39,40,40,41,41,42,42,43,43,44,44,45,45,46,46,47,47,48,48,49,49,50,50,51,51,52,52,53,53,54,54,55,55,56,56,57,57,58,58,59,59,60,60,61,61,62,62],"right_children":[2,4,6,8,10,12,14,16,18,20,22,24,26,28,30,32,34,36,38,40,42,44,46,48,50,52,54,56,58,60,62,64,66,68,70,72,74,76,78,80,82,84,86,88,90,92,94,96,98,100,102,104,106,108,110,112,114,116,118,120,122,124,126,-1,-1,-1,-1,-1,-1,-1,-1,-1,-1,-1,-1,-1,-1,-1,-1,-1,-1,-1,-1,-1,-1,-1,-1,-1,-1,-1,-1,-1,-1,-1,-1,-1,-1,-1,-1,-1,-1,-1,-1,-1,-1,-1,-1,-1,-1,-1,-1,-1,-1,-1,-1,-1,-1,-1,-1,-1,-1,-1,-1,-1,-1,-1,-1],"split_conditions":[NaN,NaN,NaN,NaN,NaN,NaN,NaN,NaN,NaN,NaN,NaN,NaN,NaN,NaN,NaN,NaN,NaN,NaN,1.231E0,NaN,NaN,NaN,NaN,NaN,NaN,5E1,NaN,1.172E0,NaN,NaN,NaN,NaN,NaN,NaN,NaN,NaN,NaN,NaN,NaN,NaN,NaN,NaN,NaN,NaN,NaN,NaN,NaN,NaN,NaN,NaN,NaN,NaN,NaN,NaN,NaN,NaN,NaN,NaN,NaN,5.6E-1,1.77E1,NaN,1.3525E1,5.796631E-1,9.136047E-1,5.614038E-1,3.4603918E-1,5.678513E-1,3.3567548E-1,3.7536147E-1,1.7857593E-1,3.7738568E-1,2.4480383E-1,2.5511128E-1,2.296388E-3,2.3989148E-1,-4.1305843E-1,4.3262374E-1,7.90001E-2,4.647514E-1,1.816438E-1,6.191709E-1,2.1647042E-1,3.425516E-1,1.8812008E-1,2.1697997E-1,1.7261301E-3,4.211205E-1,2.0917954E-1,2.3055752E-1,9.4270725E-3,1.921896E-1,7.168411E-2,4.5101598E-2,-6.475875E-2,5.204316E-1,9.4402874E-1,2.4536331E-1,-1.1224058E-1,3.0922434E-1,3.6204776E-3,5.0397355E-2,-1.0341944E-1,-1.8713522E-3,-1.4364244E-1,1.6802092E0,-2.2507098E-1,-3.6052733E-3,-1.227409E-1,-1.6873936E-1,-3.313492E-1,-4.2971605E-1,6.9050527E-1,7.7599806E-1,4.0756443E-1,-8.659626E-2,-2.1517985E-1,-2.0795974E-1,-3.0583233E-1,-9.623572E-2,-2.2001158E-1,-3.1512585E-1,8.3965905E-2,-2.2109054E-1,-3.0786747E-1,-3.6506256E-1,-1.3823839E-1],"split_indices":[1,0,0,4,6,0,4,5,3,1,4,6,4,0,5,6,4,1,2,5,5,0,5,5,5,2,3,2,0,0,0,3,4,3,0,5,5,4,4,0,4,0,6,1,1,5,3,3,5,4,4,5,5,0,4,3,5,5,5,2,2,4,2,0,0,0,0,0,0,0,0,0,0,0,0,0,0,0,0,0,0,0,0,0,0,0,0,0,0,0,0,0,0,0,0,0,0,0,0,0,0,0,0,0,0,0,0,0,0,0,0,0,0,0,0,0,0,0,0,0,0,0,0,0,0,0,0],"split_type":[1,1,1,1,1,1,1,1,1,1,1,1,1,1,1,1,1,1,0,1,1,1,1,1,1,0,1,0,1,1,1,1,1,1,1,1,1,1,1,1,1,1,1,1,1,1,1,1,1,1,1,1,1,1,1,1,1,1,1,0,0,1,0,0,0,0,0,0,0,0,0,0,0,0,0,0,0,0,0,0,0,0,0,0,0,0,0,0,0,0,0,0,0,0,0,0,0,0,0,0,0,0,0,0,0,0,0,0,0,0,0,0,0,0,0,0,0,0,0,0,0,0,0,0,0,0,0],"sum_hessian":[1.67056E5,7.0654E4,9.6402E4,2.5251E4,4.5403E4,5.1235E4,4.5167E4,1.5254E4,9.997E3,1.6109E4,2.9294E4,1.0387E4,4.0848E4,1.4088E4,3.1079E4,5.994E3,9.26E3,5.552E3,4.445E3,5.67E3,1.0439E4,1.415E4,1.5144E4,1.776E3,8.611E3,1.8806E4,2.2042E4,2.61E2,1.3827E4,1.3358E4,1.7721E4,3.125E3,2.869E3,2.984E3,6.276E3,4.507E3,1.045E3,1.647E3,2.798E3,3.363E3,2.307E3,8.264E3,2.175E3,8.199E3,5.951E3,7.32E3,7.824E3,4.92E2,1.284E3,2.559E3,6.052E3,1.8705E4,1.01E2,1.1441E4,1.0601E4,4E1,2.21E2,8.591E3,5.236E3,8.689E3,4.669E3,9.163E3,8.558E3,1.768E3,1.357E3,1.076E3,1.793E3,1.884E3,1.1E3,3.281E3,2.995E3,2.203E3,2.304E3,4.86E2,5.59E2,3.96E2,1.251E3,2.62E2,2.536E3,2.869E3,4.94E2,4.8E1,2.259E3,2.102E3,6.162E3,5.01E2,1.674E3,1.353E3,6.846E3,1.159E3,4.792E3,2.59E3,4.73E3,2.116E3,5.708E3,4E2,9.2E1,1.067E3,2.17E2,1.565E3,9.94E2,3.078E3,2.974E3,1.1752E4,6.953E3,7.1E1,3E1,4.223E3,7.218E3,6.443E3,4.158E3,3.8E1,2E0,7.3E1,1.48E2,4.927E3,3.664E3,1.193E3,4.043E3,1E3,7.689E3,4.516E3,1.53E2,1.462E3,7.701E3,8.143E3,4.15E2],"tree_param":{"num_deleted":"0","num_feature":"7","num_nodes":"127","size_leaf_vector":"1"}},{"base_weights":[5.993031E-5,4.9301216E-1,-3.6123112E-1,8.317034E-1,3.8114306E-1,-1.3589984E-1,-5.816079E-1,1.1764362E0,5.170578E-1,2.7800655E-1,8.6273277E-1,1.9910668E-1,-2.2755131E-1,-4.9269167E-1,-7.2587526E-1,1.5125445E0,5.0367725E-1,1.1036716E0,3.894847E-1,6.3000524E-1,1.1589972E-1,1.1544095E0,4.2056197E-1,4.5402735E-1,-2.6171615E-2,-4.289176E-2,-3.56419E-1,-3.6595264E-1,-6.795822E-1,-6.431941E-1,-8.747939E-1,2.3042204E0,1.3207617E0,8.292185E-1,3.6206058E-1,3.2730978E0,1.0047346E0,6.5563697E-1,1.19745106E-1,9.5808494E-1,4.657541E-1,1.83533E-1,-7.1534485E-1,1.4146494E0,7.502985E-1,3.1995478E0,3.5635126E-1,5.7991517E-1,-1.853755E-1,4.8335004E-1,-1.5463121E-1,-7.647218E-2,2.0411963E0,-1.8384269E-1,-5.426513E-1,-1.103085E-1,-4.43086E-1,-5.2134436E-1,-7.975058E-1,-4.9794447E-1,-7.311827E-1,-7.0185614E-1,-9.059246E-1,1.3068272E0,5.7572395E-1,4.6315068E-1,2.5930876E-1,4.3746212E-1,2.0807035E-1,1.6038178E-1,1.2662364E-2,1.1738696E0,5.5713516E-1,4.6299204E-1,2.0816545E-1,2.535078E-1,-1.686711E-2,2.321945E-1,-1.0884431E-2,3.7371087E-1,2.0063911E-1,1.9390462E-1,6.752622E-2,1.058067E-1,6.810647E-3,-3.4585184E-1,1.0771578E-1,5.239006E-1,3.1380987E-1,2.784205E-1,1.4181566E-1,1.7996994E0,1.1723785E-1,1.826948E-1,3.379575E-2,3.6583605E-1,1.4152808E-1,1.4004664E-2,-9.615794E-2,1.999969E-1,-7.841831E-2,-7.433556E-3,-1.3868076E-1,3.4398757E-2,-6.0113367E-2,1.3788147E0,-3.7681606E-2,-1.5519164E-2,-1.0887286E-1,-8.9892074E-2,-2.1837604E-1,-1.5573E-1,-1.140872E-2,-5.286807E-2,-1.5090978E-1,-2.1178572E-1,-1.0636643E-1,-2.2786717E-1,-3.096386E-1,-1.6258553E-1,1.05265714E-1,-1.5171276E-1,-2.3075342E-1,-7.036684E-2,-2.5406063E-1,-2.4557008E-1,-2.8484693E-1],"categories":[4,0,1,2,3,4,5,6,7,8,9,11,12,13,15,16,17,18,19,20,22,23,24,25,26,27,28,29,0,3,6,10,11,12,15,23,25,28,3,10,11,12,13,14,15,16,17,18,19,20,21,22,23,24,25,27,0,5,8,9,19,20,22,26,27,11,12,23,0,4,5,10,11,0,1,2,3,4,5,6,9,10,11,1,2,5,6,7,9,10,11,1,2,3,4,5,7,8,9,10,11,12,13,14,15,16,17,18,19,20,21,22,23,24,25,26,27,28,29,7,8,9,10,11,12,13,14,15,16,17,18,19,20,21,22,23,27,30,1,2,3,4,5,6,7,10,0,1,4,6,11,6,7,9,10,0,1,2,5,6,0,1,4,5,6,0,1,2,3,4,5,6,7,8,9,11,12,13,14,15,16,17,18,19,20,21,22,23,24,25,26,27,28,29,0,1,2,3,4,5,6,7,8,9,11,12,13,14,15,16,17,18,19,20,22,23,24,25,26,27,28,29,0,1,4,5,6,0,7,10,11,12,13,15,17,18,20,22,23,24,25,30,0,1,2,3,4,5,6,7,8,9,10,11,12,13,14,15,17,18,19,20,21,22,23,24,25,26,27,28,29,30,0,1,2,3,4,10,11,0,1,2,4,5,6,2,1,4,6,7,8,9,10,11,12,13,15,16,17,18,19,20,21,22,23,24,25,26,27,29,2,4,5,6,7,8,9,12,13,14,15,16,17,18,19,21,22,23,24,26,2,3,5,6,7,8,9,10,11,12,13,14,15,16,17,18,20,21,23,24,0,1,2,5,6,0,1,3,4,5,6,7,8,9,10,11,12,13,14,15,16,17,18,19,20,21,22,23,24,25,26,27,28,29,30,2,3,9,10,11,12,13,14,15,16,17,18,19,20,21,22,23,24,25,26,27,28,30,0,1,3,4,5,7,8,9,10,11,12,13,14,15,16,17,18,19,20,21,22,23,24,25,27,28,30,0,1,2,3,4,5,6,7,8,9,11,12,13,14,15,16,17,18,19,20,22,23,24,25,26,27,28,29,0,2,3,4,0,0,1,2,5,6,1,3,4,5,7,9,10,11,12,13,14,15,16,17,18,19,20,21,22,23,24,25,26,27,28,29,1,2,3,4,5,7,8,9,10,11,12,13,14,15,16,17,18,19,20,21,23,24,25,26,27,28,29,4,6,7,13,14,15,17,19,20,21,22,23,24,26,27,28,29,0,1,2,3,4,5,7,10,11,0,4,5,0,1,2,3,4,5,7,8,9,10,11,0,2,4,0,1,2,4,5,6,1,3,4,5,6,25,26,9,16,18,1,13,16,2,3,4,5,8,9,10,11,12,13,14,15,16,17,18,21,22,23,24,28,0,1,2,3,4,5,6,7,8,9,10,11,12,13,14,15,16,18,19,20,21,22,23,24,28,29,30,4,10,11,12,13,14,15,16,18,21,22,23,24,25,26,29,0,1,2,3,6,7,10,11,13,15,16,17,18,19,20,24,25,26,27,28,2,0,1,2,5,6,0,6,0,1,2,5,6,2,4,5,6,9,11,12,13,14,16,17,18,19,23,24,25,26,28,0,3,4,5,6,7,8,9,11,12,15,18,19,20,21,25,27,28,29],"categories_nodes":[0,1,2,3,4,5,6,7,8,9,10,11,12,13,14,15,16,17,18,19,20,21,22,23,24,26,27,28,29,30,31,32,33,34,35,37,38,39,40,41,43,44,45,46,47,48,49,50,51,52,53,54,55,56,58,60,61,62],"categories_segments":[0,1,28,38,56,57,65,68,73,83,91,119,138,146,151,155,160,165,194,222,227,229,242,272,279,285,286,310,330,350,355,385,408,435,463,467,468,473,499,526,543,552,555,566,569,575,582,585,588,608,635,651,671,672,677,679,684,702],"categories_sizes":[1,27,10,18,1,8,3,5,10,8,28,19,8,5,4,5,5,29,28,5,2,13,30,7,6,1,24,20,20,5,30,23,27,28,4,1,5,26,27,17,9,3,11,3,6,7,3,3,20,27,16,20,1,5,2,5,18,19],"default_left":[1,1,1,1,1,1,1,1,1,1,1,1,1,1,1,1,1,1,1,1,1,1,1,1,1,0,1,1,1,1,1,1,1,1,1,1,0,1,1,1,1,1,0,1,1,1,1,1,1,1,1,1,1,1,1,1,1,0,1,0,1,1,1,0,0,0,0,0,0,0,0,0,0,0,0,0,0,0,0,0,0,0,0,0,0,0,0,0,0,0,0,0,0,0,0,0,0,0,0,0,0,0,0,0,0,0,0,0,0,0,0,0,0,0,0,0,0,0,0,0,0,0,0,0,0,0,0],"id":1,"left_children":[1,3,5,7,9,11,13,15,17,19,21,23,25,27,29,31,33,35,37,39,41,43,45,47,49,51,53,55,57,59,61,63,65,67,69,71,73,75,77,79,81,83,85,87,89,91,93,95,97,99,101,103,105,107,109,111,113,115,117,119,121,123,125,-1,-1,-1,-1,-1,-1,-1,-1,-1,-1,-1,-1,-1,-1,-1,-1,-1,-1,-1,-1,-1,-1,-1,-1,-1,-1,-1,-1,-1,-1,-1,-1,-1,-1,-1,-1,-1,-1,-1,-1,-1,-1,-1,-1,-1,-1,-1,-1,-1,-1,-1,-1,-1,-1,-1,-1,-1,-1,-1,-1,-1,-1,-1,-1],"loss_changes":[2.97529E4,2.6767344E3,4.787082E3,1.9021494E3,2.6379058E3,1.4636052E3,6.248242E2,1.8918623E3,6.860415E2,2.496191E3,1.2077144E3,5.8807556E2,8.90646E2,7.1403613E2,2.282334E2,8.4431836E2,1.2832452E2,3.4828528E2,5.409447E2,7.4287744E2,1.6841393E3,5.924946E2,6.63551E2,3.8679596E2,3.559424E2,1.0768684E3,7.083782E2,3.543352E2,2.2695654E2,1.5238623E2,3.5063477E1,8.5065186E2,4.5630518E2,7.10863E1,1.0737543E2,5.705542E1,2.614359E2,5.1141406E2,3.8220908E2,3.8199023E2,3.9945447E2,7.536115E2,1.0598906E3,4.1778613E2,1.0876233E2,6.58145E2,2.241546E2,2.7706982E2,2.482295E1,1.4965962E2,1.7348108E2,3.5862613E2,1.3513267E3,2.7068723E2,4.771089E2,1.2310351E2,2.2077026E2,1.6004602E2,6.136328E1,1.687345E2,6.3357666E1,6.864996E1,2.0595703E1,0E0,0E0,0E0,0E0,0E0,0E0,0E0,0E0,0E0,0E0,0E0,0E0,0E0,0E0,0E0,0E0,0E0,0E0,0E0,0E0,0E0,0E0,0E0,0E0,0E0,0E0,0E0,0E0,0E0,0E0,0E0,0E0,0E0,0E0,0E0,0E0,0E0,0E0,0E0,0E0,0E0,0E0,0E0,0E0,0E0,0E0,0E0,0E0,0E0,0E0,0E0,0E0,0E0,0E0,0E0,0E0,0E0,0E0,0E0,0E0,0E0,0E0,0E0,0E0],"parents":[2147483647,0,0,1,1,2,2,3,3,4,4,5,5,6,6,7,7,8,8,9,9,10,10,11,11,12,12,13,13,14,14,15,15,16,16,17,17,18,18,19,19,20,20,21,21,22,22,23,23,24,24,25,25,26,26,27,27,28,28,29,29,30,30,31,31,32,32,33,33,34,34,35,35,36,36,37,37,38,38,39,39,40,40,41,41,42,42,43,43,44,44,45,45,46,46,47,47,48,48,49,49,50,50,51,51,52,52,53,53,54,54,55,55,56,56,57,57,58,58,59,59,60,60,61,61,62,62],"right_children":[2,4,6,8,10,12,14,16,18,20,22,24,26,28,30,32,34,36,38,40,42,44,46,48,50,52,54,56,58,60,62,64,66,68,70,72,74,76,78,80,82,84,86,88,90,92,94,96,98,100,102,104,106,108,110,112,114,116,118,120,122,124,126,-1,-1,-1,-1,-1,-1,-1,-1,-1,-1,-1,-1,-1,-1,-1,-1,-1,-1,-1,-1,-1,-1,-1,-1,-1,-1,-1,-1,-1,-1,-1,-1,-1,-1,-1,-1,-1,-1,-1,-1,-1,-1,-1,-1,-1,-1,-1,-1,-1,-1,-1,-1,-1,-1,-1,-1,-1,-1,-1,-1,-1,-1,-1,-1],"split_conditions":[NaN,NaN,NaN,NaN,NaN,NaN,NaN,NaN,NaN,NaN,NaN,NaN,NaN,NaN,NaN,NaN,NaN,NaN,NaN,NaN,NaN,NaN,NaN,NaN,NaN,2.035E1,NaN,NaN,NaN,NaN,NaN,NaN,NaN,NaN,NaN,NaN,1.218E0,NaN,NaN,NaN,NaN,NaN,1.231E0,NaN,NaN,NaN,NaN,NaN,NaN,NaN,NaN,NaN,NaN,NaN,NaN,NaN,NaN,4.5E0,NaN,1.77E1,NaN,NaN,NaN,1.3068272E0,5.7572395E-1,4.6315068E-1,2.5930876E-1,4.3746212E-1,2.0807035E-1,1.6038178E-1,1.2662364E-2,1.1738696E0,5.5713516E-1,4.6299204E-1,2.0816545E-1,2.535078E-1,-1.686711E-2,2.321945E-1,-1.0884431E-2,3.7371087E-1,2.0063911E-1,1.9390462E-1,6.752622E-2,1.058067E-1,6.810647E-3,-3.4585184E-1,1.0771578E-1,5.239006E-1,3.1380987E-1,2.784205E-1,1.4181566E-1,1.7996994E0,1.1723785E-1,1.826948E-1,3.379575E-2,3.6583605E-1,1.4152808E-1,1.4004664E-2,-9.615794E-2,1.999969E-1,-7.841831E-2,-7.433556E-3,-1.3868076E-1,3.4398757E-2,-6.0113367E-2,1.3788147E0,-3.7681606E-2,-1.5519164E-2,-1.0887286E-1,-8.9892074E-2,-2.1837604E-1,-1.5573E-1,-1.140872E-2,-5.286807E-2,-1.5090978E-1,-2.1178572E-1,-1.0636643E-1,-2.2786717E-1,-3.096386E-1,-1.6258553E-1,1.05265714E-1,-1.5171276E-1,-2.3075342E-1,-7.036684E-2,-2.5406063E-1,-2.4557008E-1,-2.8484693E-1],"split_indices":[1,0,0,5,3,0,0,4,4,4,0,5,4,4,4,6,6,0,0,6,0,5,5,4,6,2,3,5,5,5,6,5,5,5,0,1,2,1,6,0,0,5,2,4,6,4,1,6,5,5,0,5,5,5,5,3,6,2,0,2,6,5,5,0,0,0,0,0,0,0,0,0,0,0,0,0,0,0,0,0,0,0,0,0,0,0,0,0,0,0,0,0,0,0,0,0,0,0,0,0,0,0,0,0,0,0,0,0,0,0,0,0,0,0,0,0,0,0,0,0,0,0,0,0,0,0,0],"split_type":[1,1,1,1,1,1,1,1,1,1,1,1,1,1,1,1,1,1,1,1,1,1,1,1,1,0,1,1,1,1,1,1,1,1,1,1,0,1,1,1,1,1,0,1,1,1,1,1,1,1,1,1,1,1,1,1,1,0,1,0,1,1,1,0,0,0,0,0,0,0,0,0,0,0,0,0,0,0,0,0,0,0,0,0,0,0,0,0,0,0,0,0,0,0,0,0,0,0,0,0,0,0,0,0,0,0,0,0,0,0,0,0,0,0,0,0,0,0,0,0,0,0,0,0,0,0,0],"sum_hessian":[1.67056E5,7.0654E4,9.6402E4,1.7541E4,5.3113E4,4.7666E4,4.8736E4,8.369E3,9.172E3,4.3746E4,9.367E3,1.0239E4,3.7427E4,3.0155E4,1.8581E4,5.58E3,2.789E3,1.637E3,7.535E3,1.3793E4,2.9953E4,5.643E3,3.724E3,4.803E3,5.436E3,1.5384E4,2.2043E4,1.7971E4,1.2184E4,1.1951E4,6.63E3,1.086E3,4.494E3,8.44E2,1.945E3,7E1,1.567E3,3.792E3,3.743E3,4.6E3,9.193E3,2.77E4,2.253E3,3.431E3,2.212E3,8.3E1,3.641E3,4.013E3,7.9E2,1.094E3,4.342E3,1.5141E4,2.43E2,1.1442E4,1.0601E4,4.166E3,1.3805E4,5.205E3,6.979E3,4.511E3,7.44E3,1.015E3,5.615E3,1.7E2,9.16E2,3.017E3,1.477E3,1.48E2,6.96E2,1.263E3,6.82E2,4.7E1,2.3E1,5.72E2,9.95E2,2.995E3,7.97E2,7.2E2,3.023E3,2.305E3,2.295E3,5.251E3,3.942E3,1.35E4,1.42E4,1.601E3,6.52E2,1.804E3,1.627E3,1.347E3,8.65E2,4.1E1,4.2E1,1.787E3,1.854E3,5.79E2,3.434E3,2.91E2,4.99E2,8.78E2,2.16E2,3.054E3,1.288E3,5.955E3,9.186E3,1.11E2,1.32E2,6.585E3,4.857E3,4.587E3,6.014E3,6.25E2,3.541E3,2.533E3,1.1272E4,2.469E3,2.736E3,6.011E3,9.68E2,4.289E3,2.22E2,1.075E3,6.365E3,2.41E2,7.74E2,1.875E3,3.74E3],"tree_param":{"num_deleted":"0","num_feature":"7","num_nodes":"127","size_leaf_vector":"1"}},{"base_weights":[9.670003E-5,3.452555E-1,-2.5287464E-1,6.7076343E-1,2.7860954E-1,-9.50926E-2,-4.0717462E-1,1.3391546E0,5.485014E-1,4.6671763E-1,1.7051868E-1,2.1762891E-1,-1.5924428E-1,-3.349243E-1,-4.9929145E-1,2.740432E0,9.6813023E-1,7.716647E-1,4.2765653E-1,5.7719207E-1,-5.3629722E-2,3.5938534E-1,6.873198E-2,3.9818308E-1,-1.1117205E-1,7.477556E-2,-2.1534567E-1,-1.9992274E-1,-4.5562744E-1,-4.330981E-1,-6.003225E-1,5.4217134E0,1.9817171E0,1.1820717E0,3.7111515E-1,1.3044997E0,6.6035825E-1,5.8797723E-1,2.5917178E-1,6.9466E-1,3.1665814E-1,3.9996317E-1,-3.3572873E-1,4.39452E-1,-1.4294988E-1,1.9873025E-1,-1.1756353E-1,6.0107684E-1,2.2535738E-2,1.1455196E-1,-3.3650535E-1,4.4526008E-1,-7.863666E-2,-2.223311E-1,1.7008224E0,-8.638689E-2,-3.5048962E-1,-3.2973668E-1,-5.3688794E-1,-2.2894405E-1,-4.7256035E-1,-4.816761E-1,-6.798787E-1,1.9047234E0,-6.0854416E-2,7.5020874E-1,2.5452778E-1,3.8821724E-1,1.3852215E-1,2.0653245E-1,7.3959925E-3,7.11949E-1,3.0055526E-1,2.6121986E-1,1.6463475E-1,2.440873E-1,1.1173098E-1,1.5254523E-1,3.6845636E-2,2.8956786E-1,1.6357844E-1,1.4608635E-1,1.1736742E-2,1.6377285E-1,-2.8096495E-2,-1.6919075E-1,1.1894878E-1,1.9630812E-1,6.378272E-2,2.4955152E-1,-8.014735E-2,1.883206E-1,3.2275878E-2,6.0363665E-2,-7.4986316E-2,4.0194178E-1,1.1704295E-1,5.5419877E-2,-1.4126351E-1,7.637367E-2,-4.26893E-2,-3.463787E-2,-1.6157556E-1,2.1764389E-1,1.6443076E-2,1.1837426E-2,-8.143732E-2,-4.5393616E-2,-1.0861046E-1,1.1204407E0,-1.8688549E-1,-9.826767E-2,-1.4563267E-3,5.6952827E-2,-1.1671631E-1,-5.6145135E-2,-1.3861713E-1,-1.3968614E-1,-1.9659057E-1,2.2240596E-2,-1.2537837E-1,-9.8867804E-2,-1.6473469E-1,-5.0032046E-2,-1.7372197E-1,-1.9016744E-1,-2.5713867E-1],"categories":[4,0,1,2,5,6,0,3,6,10,11,12,15,20,23,25,28,1,3,4,5,7,8,9,10,11,12,13,14,15,16,17,18,19,21,22,23,24,25,27,28,29,30,1,2,3,4,5,6,7,9,11,12,13,15,17,18,19,20,22,23,24,25,26,27,28,29,0,1,2,5,6,11,12,23,28,0,1,2,3,4,5,6,7,8,9,10,11,12,13,15,16,17,18,19,20,21,22,23,24,25,26,27,28,29,0,1,2,5,6,7,8,11,14,15,16,17,18,20,21,22,23,24,25,26,28,29,30,4,11,0,1,4,0,1,5,8,10,12,14,15,16,17,18,19,21,24,25,2,5,8,9,16,19,24,26,27,0,1,4,5,6,11,6,7,9,10,0,1,2,3,4,5,6,8,9,10,11,1,3,4,5,7,9,11,12,14,15,16,17,18,19,20,21,23,24,25,26,27,28,29,0,4,5,6,7,8,9,10,11,0,1,2,3,5,7,9,11,12,13,15,16,17,19,20,22,23,24,25,26,28,29,9,13,14,16,17,18,20,21,22,23,25,27,0,14,0,1,3,4,5,7,8,9,10,11,12,13,14,15,16,17,18,19,21,23,24,25,26,28,2,7,20,27,0,1,2,3,4,5,10,11,1,5,8,19,26,2,6,7,8,9,10,11,12,13,14,15,16,17,18,20,21,22,23,24,26,27,28,29,30,6,7,8,9,10,12,15,16,19,21,22,24,25,26,27,2,3,4,5,6,7,8,12,13,14,15,16,17,18,19,20,22,23,24,26,0,1,2,5,6,0,4,5,6,7,11,12,13,15,16,17,18,19,20,21,22,23,25,26,27,0,0,1,2,3,4,5,7,10,11,4,7,10,11,2,1,2,3,4,5,6,7,9,11,12,13,14,15,16,17,18,19,20,21,22,23,24,25,26,27,28,29,0,1,4,0,1,2,3,4,6,9,10,11,12,13,15,17,18,19,20,21,23,24,25,26,27,0,1,4,0,1,2,4,5,6,9,10,11,1,2,3,4,5,6,7,9,11,12,13,14,15,17,18,19,20,22,23,24,25,26,27,28,29,0,0,4,6,11,12,13,16,17,18,20,21,23,24,27,28,29,30,0,1,2,3,5,7,8,9,10,11,0,1,2,7,8,9,10,11,1,0,1,2,3,4,6,7,9,10,11,12,13,15,16,17,18,20,21,22,23,24,25,26,27,28,29,3,4,6,11,23,26,28,0,1,3,7,9,10,11,0,1,2,4,6,7,11,0,1,2,3,4,6,8,10,11,8,11,12,13,14,15,18,20,21,27,4,7,9,11,13,14,15,16,18,20,21,22,30,2,4,5,6,7,8,9,11,12,13,14,16,18,19,20,21,22,23,24,28,29,2,3,7,9,10,0,5,6,0,11,0,2,7,8,9,11,14,15,18,19,20,21,25,26,28,29,2,3,4,6,7,10,11,12,13,16,17,18,19,20,21,22,23,24,29,30,11,12,23,28],"categories_nodes":[0,1,2,3,4,5,6,7,8,9,10,11,12,13,14,15,16,17,18,19,20,21,22,23,24,25,27,28,29,30,31,32,33,34,35,36,37,38,39,40,41,42,43,44,45,46,47,48,49,50,51,52,53,54,56,57,58,59,60,61,62],"categories_segments":[0,1,6,17,43,67,72,76,105,128,130,133,148,157,163,167,178,201,210,232,244,246,270,274,282,287,311,326,346,351,371,372,381,385,386,413,416,438,441,450,475,476,477,493,503,511,512,538,545,552,559,568,578,591,612,617,620,622,638,658,661],"categories_sizes":[1,5,11,26,24,5,4,29,23,2,3,15,9,6,4,11,23,9,22,12,2,24,4,8,5,24,15,20,5,20,1,9,4,1,27,3,22,3,9,25,1,1,16,10,8,1,26,7,7,7,9,10,13,21,5,3,2,16,20,3,1],"default_left":[1,1,1,1,1,1,1,1,1,1,1,1,1,1,1,1,1,1,1,1,1,1,1,1,1,1,0,1,1,1,1,1,1,1,1,1,1,1,1,1,1,1,1,1,1,1,1,1,1,1,1,1,1,1,1,0,1,1,1,1,1,1,1,0,0,0,0,0,0,0,0,0,0,0,0,0,0,0,0,0,0,0,0,0,0,0,0,0,0,0,0,0,0,0,0,0,0,0,0,0,0,0,0,0,0,0,0,0,0,0,0,0,0,0,0,0,0,0,0,0,0,0,0,0,0,0,0],"id":2,"left_children":[1,3,5,7,9,11,13,15,17,19,21,23,25,27,29,31,33,35,37,39,41,43,45,47,49,51,53,55,57,59,61,63,65,67,69,71,73,75,77,79,81,83,85,87,89,91,93,95,97,99,101,103,105,107,109,111,113,115,117,119,121,123,125,-1,-1,-1,-1,-1,-1,-1,-1,-1,-1,-1,-1,-1,-1,-1,-1,-1,-1,-1,-1,-1,-1,-1,-1,-1,-1,-1,-1,-1,-1,-1,-1,-1,-1,-1,-1,-1,-1,-1,-1,-1,-1,-1,-1,-1,-1,-1,-1,-1,-1,-1,-1,-1,-1,-1,-1,-1,-1,-1,-1,-1,-1,-1,-1],"loss_changes":[1.4586716E4,1.5325879E3,2.3469658E3,9.8046436E2,1.1924165E3,9.562713E2,3.2421387E2,9.6229663E2,2.7345044E2,1.2303267E3,7.1603503E2,4.8174313E2,5.192879E2,4.4505884E2,1.4300098E2,7.7857495E2,1.8719128E2,2.1057129E2,1.7779993E2,5.400698E2,4.7984927E2,5.2469653E2,5.8622235E2,3.9920856E2,1.463718E2,4.3478012E2,4.27422E2,2.2044061E2,1.4735913E2,1.041897E2,7.96875E1,4.4464917E2,1.76677E2,8.660327E1,4.2750256E1,1.9653174E2,6.879016E1,1.6384387E2,1.09195786E2,4.9129102E2,2.5936206E2,1.0364714E2,3.8661255E2,5.483523E2,2.1743341E2,5.573988E2,4.1992786E2,5.2943066E2,1.4718283E2,5.175514E1,6.426103E1,2.4504236E2,1.2320267E2,3.1534387E2,5.506017E2,1.4460266E2,1.1559845E2,1.0670117E2,7.3646484E1,1.20255615E2,1.1857739E2,1.0436755E2,4.0799805E1,0E0,0E0,0E0,0E0,0E0,0E0,0E0,0E0,0E0,0E0,0E0,0E0,0E0,0E0,0E0,0E0,0E0,0E0,0E0,0E0,0E0,0E0,0E0,0E0,0E0,0E0,0E0,0E0,0E0,0E0,0E0,0E0,0E0,0E0,0E0,0E0,0E0,0E0,0E0,0E0,0E0,0E0,0E0,0E0,0E0,0E0,0E0,0E0,0E0,0E0,0E0,0E0,0E0,0E0,0E0,0E0,0E0,0E0,0E0,0E0,0E0,0E0,0E0,0E0],"parents":[2147483647,0,0,1,1,2,2,3,3,4,4,5,5,6,6,7,7,8,8,9,9,10,10,11,11,12,12,13,13,14,14,15,15,16,16,17,17,18,18,19,19,20,20,21,21,22,22,23,23,24,24,25,25,26,26,27,27,28,28,29,29,30,30,31,31,32,32,33,33,34,34,35,35,36,36,37,37,38,38,39,39,40,40,41,41,42,42,43,43,44,44,45,45,46,46,47,47,48,48,49,49,50,50,51,51,52,52,53,53,54,54,55,55,56,56,57,57,58,58,59,59,60,60,61,61,62,62],"right_children":[2,4,6,8,10,12,14,16,18,20,22,24,26,28,30,32,34,36,38,40,42,44,46,48,50,52,54,56,58,60,62,64,66,68,70,72,74,76,78,80,82,84,86,88,90,92,94,96,98,100,102,104,106,108,110,112,114,116,118,120,122,124,126,-1,-1,-1,-1,-1,-1,-1,-1,-1,-1,-1,-1,-1,-1,-1,-1,-1,-1,-1,-1,-1,-1,-1,-1,-1,-1,-1,-1,-1,-1,-1,-1,-1,-1,-1,-1,-1,-1,-1,-1,-1,-1,-1,-1,-1,-1,-1,-1,-1,-1,-1,-1,-1,-1,-1,-1,-1,-1,-1,-1,-1,-1,-1,-1],"split_conditions":[NaN,NaN,NaN,NaN,NaN,NaN,NaN,NaN,NaN,NaN,NaN,NaN,NaN,NaN,NaN,NaN,NaN,NaN,NaN,NaN,NaN,NaN,NaN,NaN,NaN,NaN,5E1,NaN,NaN,NaN,NaN,NaN,NaN,NaN,NaN,NaN,NaN,NaN,NaN,NaN,NaN,NaN,NaN,NaN,NaN,NaN,NaN,NaN,NaN,NaN,NaN,NaN,NaN,NaN,NaN,1.922E0,NaN,NaN,NaN,NaN,NaN,NaN,NaN,1.9047234E0,-6.0854416E-2,7.5020874E-1,2.5452778E-1,3.8821724E-1,1.3852215E-1,2.0653245E-1,7.3959925E-3,7.11949E-1,3.0055526E-1,2.6121986E-1,1.6463475E-1,2.440873E-1,1.1173098E-1,1.5254523E-1,3.6845636E-2,2.8956786E-1,1.6357844E-1,1.4608635E-1,1.1736742E-2,1.6377285E-1,-2.8096495E-2,-1.6919075E-1,1.1894878E-1,1.9630812E-1,6.378272E-2,2.4955152E-1,-8.014735E-2,1.883206E-1,3.2275878E-2,6.0363665E-2,-7.4986316E-2,4.0194178E-1,1.1704295E-1,5.5419877E-2,-1.4126351E-1,7.637367E-2,-4.26893E-2,-3.463787E-2,-1.6157556E-1,2.1764389E-1,1.6443076E-2,1.1837426E-2,-8.143732E-2,-4.5393616E-2,-1.0861046E-1,1.1204407E0,-1.8688549E-1,-9.826767E-2,-1.4563267E-3,5.6952827E-2,-1.1671631E-1,-5.6145135E-2,-1.3861713E-1,-1.3968614E-1,-1.9659057E-1,2.2240596E-2,-1.2537837E-1,-9.8867804E-2,-1.6473469E-1,-5.0032046E-2,-1.7372197E-1,-1.9016744E-1,-2.5713867E-1],"split_indices":[1,6,0,5,0,6,0,0,5,4,1,5,0,4,4,4,0,4,0,5,0,0,0,4,0,5,2,5,5,6,5,1,4,4,3,0,1,5,1,4,0,1,3,5,4,4,1,0,5,4,4,4,5,5,5,2,4,6,4,5,5,0,0,0,0,0,0,0,0,0,0,0,0,0,0,0,0,0,0,0,0,0,0,0,0,0,0,0,0,0,0,0,0,0,0,0,0,0,0,0,0,0,0,0,0,0,0,0,0,0,0,0,0,0,0,0,0,0,0,0,0,0,0,0,0,0,0],"split_type":[1,1,1,1,1,1,1,1,1,1,1,1,1,1,1,1,1,1,1,1,1,1,1,1,1,1,0,1,1,1,1,1,1,1,1,1,1,1,1,1,1,1,1,1,1,1,1,1,1,1,1,1,1,1,1,0,1,1,1,1,1,1,1,0,0,0,0,0,0,0,0,0,0,0,0,0,0,0,0,0,0,0,0,0,0,0,0,0,0,0,0,0,0,0,0,0,0,0,0,0,0,0,0,0,0,0,0,0,0,0,0,0,0,0,0,0,0,0,0,0,0,0,0,0,0,0,0],"sum_hessian":[1.67056E5,7.0654E4,9.6402E4,1.2006E4,5.8648E4,4.7664E4,4.8738E4,1.855E3,1.0151E4,2.1401E4,3.7247E4,8.113E3,3.9551E4,2.7317E4,2.1421E4,3.87E2,1.468E3,3.564E3,6.587E3,1.7653E4,3.748E3,1.3043E4,2.4204E4,5.237E3,2.876E3,7.648E3,3.1903E4,1.2896E4,1.4421E4,1.2945E4,8.476E3,8.4E1,3.03E2,1.08E3,3.88E2,6.14E2,2.95E3,3.374E3,3.213E3,1.2166E4,5.487E3,1.437E3,2.311E3,1.125E4,1.793E3,1.4256E4,9.948E3,3.4E3,1.837E3,1.437E3,1.439E3,2.239E3,5.409E3,3.1788E4,1.15E2,7.353E3,5.543E3,5.659E3,8.762E3,2.098E3,1.0847E4,3.405E3,5.071E3,7.2E1,1.2E1,2.07E2,9.6E1,9.34E2,1.46E2,2.02E2,1.86E2,1.34E2,4.8E2,1.02E3,1.93E3,1.647E3,1.727E3,1.135E3,2.078E3,4.326E3,7.84E3,3.4E3,2.087E3,1.109E3,3.28E2,1.762E3,5.49E2,5.776E3,5.474E3,2.02E2,1.591E3,2.497E3,1.1759E4,2.919E3,7.029E3,7.54E2,2.646E3,1.383E3,4.54E2,9.3E2,5.07E2,6.88E2,7.51E2,1.303E3,9.36E2,3.355E3,2.054E3,2.1076E4,1.0712E4,6.1E1,5.4E1,1.857E3,5.496E3,3.69E2,5.174E3,2.725E3,2.934E3,5.473E3,3.289E3,8.06E2,1.292E3,3.784E3,7.063E3,8.05E2,2.6E3,4.03E3,1.041E3],"tree_param":{"num_deleted":"0","num_feature":"7","num_nodes":"127","size_leaf_vector":"1"}},{"base_weights":[1.0593895E-4,2.4177656E-1,-1.7701757E-1,4.0352237E-1,1.5488096E-1,-1.1399131E-2,-2.5519738E-1,7.280004E-1,3.151216E-1,2.3604494E-1,-6.40748E-3,9.918196E-2,-1.283379E-1,-1.7388794E-1,-3.586771E-1,1.3690342E0,5.5357265E-1,5.802983E-1,2.641518E-1,3.693649E-1,9.751764E-2,2.639262E-1,-1.05635725E-1,7.648304E-2,1.1217271E0,1.3109101E-1,-2.8086185E-1,-5.9336483E-2,-3.134106E-1,-3.1479016E-1,-5.683576E-1,2.8169143E0,1.0178787E0,7.641219E-1,3.6845008E-1,1.4366053E0,3.119872E-1,3.6234084E-1,-5.6982428E-2,5.764416E-1,2.1672265E-1,2.3992455E-1,1.5587152E-2,1.5948725E0,1.8974735E-1,5.6168035E-2,-1.8106577E-1,1.6513453E-1,-9.680792E-2,2.2304409E0,-5.965841E-2,4.1499767E-1,-1.4369614E-2,-1.9172072E-1,-4.360994E-1,5.155494E-2,-1.8829855E-1,-2.3381959E-1,-3.8433474E-1,-2.145211E-1,-3.649838E-1,-5.913622E-1,1.4313087E0,1.0389827E0,3.3416298E-1,3.3959463E-1,-1.4608276E-2,4.5687455E-1,1.9475318E-1,3.7921402E-1,5.641874E-2,1.4057003E0,3.6343157E-1,3.717182E-1,7.5145505E-2,1.4258291E-1,5.4858904E-2,7.665688E-2,-9.733413E-2,2.214628E-1,7.625457E-2,1.09020434E-1,-3.6257572E-2,9.4888434E-2,-4.749116E-2,1.6734499E-1,-5.1808963E-3,7.403327E-1,1.0485798E-1,1.0155938E-1,-3.9675076E-2,6.746831E-2,-3.6536023E-2,1.6651936E-2,-7.145431E-2,8.160766E-2,1.5839366E-2,2.3148669E-2,-5.0901596E-2,3.7044888E0,6.3105404E-1,6.880239E-2,-1.3166866E-1,1.7021829E-1,-1.2340885E-2,8.521123E-3,-7.7352166E-2,-1.9371273E-3,-6.877615E-2,-8.70284E-2,-1.8222167E-1,8.3469346E-2,-2.648057E-2,-3.624857E-2,-1.0032471E-1,-2.9351873E-2,-1.07908614E-1,-7.652851E-2,-1.319262E-1,-6.8944074E-2,1.2862694E-1,-4.9253255E-2,-1.210003E-1,-1.8978532E-1,2.1272438E-2,8.225736E-1,-2.8380203E-1],"categories":[4,0,1,5,6,0,3,5,6,8,10,11,12,15,20,23,25,26,28,0,3,4,5,7,9,10,11,13,14,15,16,17,18,19,20,21,22,23,24,25,27,28,29,30,9,12,13,15,18,19,20,21,22,23,26,28,1,2,4,7,9,10,0,1,4,5,6,10,11,0,1,2,3,4,5,6,7,8,9,11,12,15,16,17,18,19,20,21,22,23,24,25,26,27,28,0,1,3,4,1,2,3,5,7,8,9,11,12,13,15,16,17,18,19,20,22,23,24,25,26,27,28,29,0,1,4,5,6,7,9,10,11,5,6,7,9,10,11,12,13,14,15,16,18,19,20,21,23,24,25,26,27,28,29,3,6,10,11,12,15,28,0,6,8,23,26,1,2,3,4,5,6,8,9,10,11,1,3,4,5,7,8,9,10,11,12,13,14,15,16,17,18,19,20,21,22,23,24,25,26,27,28,29,0,1,3,4,5,6,7,8,9,10,11,12,13,14,15,16,17,18,19,20,21,22,23,24,25,26,27,28,29,2,7,0,4,5,9,10,11,0,1,4,1,2,3,4,5,6,7,8,9,10,11,12,13,14,15,16,17,18,19,20,21,22,23,24,25,26,27,28,29,12,13,15,19,20,21,22,23,26,3,4,9,10,11,16,18,22,23,24,30,0,1,2,3,4,5,6,7,8,9,10,11,12,15,16,17,18,19,20,21,22,23,24,28,0,2,3,4,5,6,7,8,9,10,11,12,13,15,18,19,20,21,23,24,25,26,27,28,29,11,12,13,14,15,18,19,25,27,0,1,4,6,7,10,12,14,15,16,17,18,19,21,22,24,7,9,10,11,12,14,16,19,20,21,22,23,24,25,26,27,28,2,3,4,5,6,7,8,11,12,13,14,15,16,17,18,19,20,21,22,23,24,25,0,0,1,2,3,4,5,6,7,8,9,11,12,13,15,16,17,18,19,20,21,22,23,24,25,26,27,28,29,0,3,4,7,10,11,0,1,3,4,0,1,2,4,0,1,2,3,4,5,6,7,8,9,10,11,12,13,14,15,16,17,18,20,21,22,23,24,25,26,27,28,29,30,0,1,2,4,5,6,7,8,9,10,11,1,2,4,6,7,8,12,14,17,18,20,21,24,25,26,0,3,4,5,7,10,13,17,18,19,22,24,25,28,29,30,0,2,4,1,0,1,3,4,5,6,7,8,9,10,11,12,13,14,15,17,18,19,21,23,24,25,26,28,29,0,1,2,3,4,6,7,8,9,10,0,1,2,3,4,5,6,7,8,9,10,11,12,13,14,16,17,18,21,22,23,24,25,27,29,30,0,1,3,4,5,7,9,11,12,13,14,15,16,17,18,19,20,21,23,24,25,26,27,28,29,0,2,4,7,8,13,27,29,0,2,4,6,7,13,14,22,27,29,1,9,16,19,27,0,1,2,3,4,5,6,7,8,9,10,11,12,13,15,16,17,18,19,20,21,22,23,24,25,26,27,28,29,4,7,9,10,12,15,16,17,18,19,21,24,5,6,7,8,9,10,11,12,13,14,15,16,18,19,20,21,22,23,24,25,26,27,28,29,30,4,17,1,2,9,19,21,22,1,7,10,0,1,5,6,2,7,3,11,12,15,0,1,5,6,0,1,2,5,6,0,1,5,7,8,9,11,12,13,14,15,17,18,19,20,21,23,24,26],"categories_nodes":[0,1,2,3,4,5,6,7,8,9,10,12,13,14,15,16,17,18,19,20,21,22,23,24,25,26,27,28,29,30,31,32,33,34,35,36,37,38,39,40,41,42,43,44,45,46,48,49,50,51,52,53,54,55,56,57,58,60,62],"categories_segments":[0,1,5,19,44,56,62,69,95,99,123,132,154,161,166,176,203,232,234,240,243,272,281,292,316,341,350,366,383,405,406,434,440,444,448,478,489,504,520,523,524,549,559,585,610,618,628,633,662,674,699,701,707,710,714,716,720,724,729],"categories_sizes":[1,4,14,25,12,6,7,26,4,24,9,22,7,5,10,27,29,2,6,3,29,9,11,24,25,9,16,17,22,1,28,6,4,4,30,11,15,16,3,1,25,10,26,25,8,10,5,29,12,25,2,6,3,4,2,4,4,5,19],"default_left":[1,1,1,1,1,1,1,1,1,1,1,0,1,1,1,1,1,1,1,1,1,1,1,1,1,1,1,1,1,1,1,1,1,1,1,1,1,1,1,1,1,1,1,1,1,1,1,0,1,1,1,1,1,1,1,1,1,1,1,0,1,0,1,0,0,0,0,0,0,0,0,0,0,0,0,0,0,0,0,0,0,0,0,0,0,0,0,0,0,0,0,0,0,0,0,0,0,0,0,0,0,0,0,0,0,0,0,0,0,0,0,0,0,0,0,0,0,0,0,0,0,0,0,0,0,0,0],"id":3,"left_children":[1,3,5,7,9,11,13,15,17,19,21,23,25,27,29,31,33,35,37,39,41,43,45,47,49,51,53,55,57,59,61,63,65,67,69,71,73,75,77,79,81,83,85,87,89,91,93,95,97,99,101,103,105,107,109,111,113,115,117,119,121,123,125,-1,-1,-1,-1,-1,-1,-1,-1,-1,-1,-1,-1,-1,-1,-1,-1,-1,-1,-1,-1,-1,-1,-1,-1,-1,-1,-1,-1,-1,-1,-1,-1,-1,-1,-1,-1,-1,-1,-1,-1,-1,-1,-1,-1,-1,-1,-1,-1,-1,-1,-1,-1,-1,-1,-1,-1,-1,-1,-1,-1,-1,-1,-1,-1],"loss_changes":[7.15101E3,9.9299316E2,1.2482244E3,7.080386E2,6.0170764E2,3.997813E2,5.509541E2,5.9029126E2,2.621516E2,5.6467395E2,4.1280695E2,3.687316E2,5.946025E2,5.861405E2,2.6498364E2,5.716599E2,1.6174768E2,7.182307E2,5.133594E2,4.923694E2,1.7497324E2,4.0764175E2,1.3740033E2,2.3884143E2,4.5202045E2,2.297838E2,1.308659E2,2.8804187E2,9.324902E1,1.1985498E2,2.3020972E2,2.3831335E2,1.1092352E2,1.6856543E2,3.57444E2,5.40083E2,1.3556122E2,2.526322E2,3.187892E2,3.4445215E2,4.4425195E2,1.6662094E2,1.6963509E2,2.3611792E2,1.8760481E2,1.0751924E2,1.0375746E2,1.2348563E2,6.671512E1,2.0261865E2,1.8513357E1,1.3105582E2,3.8331093E1,4.1810028E1,8.613849E1,3.4327774E2,9.1762146E1,1.3337149E2,6.250122E1,7.832471E1,1.2221826E2,1.3474414E2,1.8018977E2,0E0,0E0,0E0,0E0,0E0,0E0,0E0,0E0,0E0,0E0,0E0,0E0,0E0,0E0,0E0,0E0,0E0,0E0,0E0,0E0,0E0,0E0,0E0,0E0,0E0,0E0,0E0,0E0,0E0,0E0,0E0,0E0,0E0,0E0,0E0,0E0,0E0,0E0,0E0,0E0,0E0,0E0,0E0,0E0,0E0,0E0,0E0,0E0,0E0,0E0,0E0,0E0,0E0,0E0,0E0,0E0,0E0,0E0,0E0,0E0,0E0,0E0,0E0,0E0],"parents":[2147483647,0,0,1,1,2,2,3,3,4,4,5,5,6,6,7,7,8,8,9,9,10,10,11,11,12,12,13,13,14,14,15,15,16,16,17,17,18,18,19,19,20,20,21,21,22,22,23,23,24,24,25,25,26,26,27,27,28,28,29,29,30,30,31,31,32,32,33,33,34,34,35,35,36,36,37,37,38,38,39,39,40,40,41,41,42,42,43,43,44,44,45,45,46,46,47,47,48,48,49,49,50,50,51,51,52,52,53,53,54,54,55,55,56,56,57,57,58,58,59,59,60,60,61,61,62,62],"right_children":[2,4,6,8,10,12,14,16,18,20,22,24,26,28,30,32,34,36,38,40,42,44,46,48,50,52,54,56,58,60,62,64,66,68,70,72,74,76,78,80,82,84,86,88,90,92,94,96,98,100,102,104,106,108,110,112,114,116,118,120,122,124,126,-1,-1,-1,-1,-1,-1,-1,-1,-1,-1,-1,-1,-1,-1,-1,-1,-1,-1,-1,-1,-1,-1,-1,-1,-1,-1,-1,-1,-1,-1,-1,-1,-1,-1,-1,-1,-1,-1,-1,-1,-1,-1,-1,-1,-1,-1,-1,-1,-1,-1,-1,-1,-1,-1,-1,-1,-1,-1,-1,-1,-1,-1,-1,-1],"split_conditions":[NaN,NaN,NaN,NaN,NaN,NaN,NaN,NaN,NaN,NaN,NaN,1.5535E1,NaN,NaN,NaN,NaN,NaN,NaN,NaN,NaN,NaN,NaN,NaN,NaN,NaN,NaN,NaN,NaN,NaN,NaN,NaN,NaN,NaN,NaN,NaN,NaN,NaN,NaN,NaN,NaN,NaN,NaN,NaN,NaN,NaN,NaN,NaN,2.99E0,NaN,NaN,NaN,NaN,NaN,NaN,NaN,NaN,NaN,NaN,NaN,1.77E1,NaN,1.5535E1,NaN,1.0389827E0,3.3416298E-1,3.3959463E-1,-1.4608276E-2,4.5687455E-1,1.9475318E-1,3.7921402E-1,5.641874E-2,1.4057003E0,3.6343157E-1,3.717182E-1,7.5145505E-2,1.4258291E-1,5.4858904E-2,7.665688E-2,-9.733413E-2,2.214628E-1,7.625457E-2,1.09020434E-1,-3.6257572E-2,9.4888434E-2,-4.749116E-2,1.6734499E-1,-5.1808963E-3,7.403327E-1,1.0485798E-1,1.0155938E-1,-3.9675076E-2,6.746831E-2,-3.6536023E-2,1.6651936E-2,-7.145431E-2,8.160766E-2,1.5839366E-2,2.3148669E-2,-5.0901596E-2,3.7044888E0,6.3105404E-1,6.880239E-2,-1.3166866E-1,1.7021829E-1,-1.2340885E-2,8.521123E-3,-7.7352166E-2,-1.9371273E-3,-6.877615E-2,-8.70284E-2,-1.8222167E-1,8.3469346E-2,-2.648057E-2,-3.624857E-2,-1.0032471E-1,-2.9351873E-2,-1.07908614E-1,-7.652851E-2,-1.319262E-1,-6.8944074E-2,1.2862694E-1,-4.9253255E-2,-1.210003E-1,-1.8978532E-1,2.1272438E-2,8.225736E-1,-2.8380203E-1],"split_indices":[1,6,0,5,5,4,4,0,1,0,4,2,5,0,0,4,0,0,0,4,1,0,5,5,5,0,5,5,5,5,3,0,4,1,1,5,4,5,5,1,3,0,4,5,0,0,0,2,0,0,5,5,5,0,4,6,4,0,6,2,6,2,5,0,0,0,0,0,0,0,0,0,0,0,0,0,0,0,0,0,0,0,0,0,0,0,0,0,0,0,0,0,0,0,0,0,0,0,0,0,0,0,0,0,0,0,0,0,0,0,0,0,0,0,0,0,0,0,0,0,0,0,0,0,0,0,0],"split_type":[1,1,1,1,1,1,1,1,1,1,1,0,1,1,1,1,1,1,1,1,1,1,1,1,1,1,1,1,1,1,1,1,1,1,1,1,1,1,1,1,1,1,1,1,1,1,1,0,1,1,1,1,1,1,1,1,1,1,1,0,1,0,1,0,0,0,0,0,0,0,0,0,0,0,0,0,0,0,0,0,0,0,0,0,0,0,0,0,0,0,0,0,0,0,0,0,0,0,0,0,0,0,0,0,0,0,0,0,0,0,0,0,0,0,0,0,0,0,0,0,0,0,0,0,0,0,0],"sum_hessian":[1.67056E5,7.0654E4,9.6402E4,2.4691E4,4.5963E4,3.0914E4,6.5488E4,5.285E3,1.9406E4,3.0576E4,1.5387E4,1.5889E4,1.5025E4,3.6674E4,2.8814E4,1.129E3,4.156E3,3.127E3,1.6279E4,1.558E4,1.4996E4,4.131E3,1.1256E4,1.5545E4,3.44E2,5.563E3,9.462E3,2.014E4,1.6534E4,2.3829E4,4.985E3,2.19E2,9.1E2,1.943E3,2.213E3,7.45E2,2.382E3,1.2467E4,3.812E3,6.61E3,8.97E3,5.476E3,9.52E3,2.17E2,3.914E3,3.579E3,7.677E3,1.0284E4,5.261E3,1.77E2,1.67E2,1.884E3,3.679E3,6.012E3,3.45E3,1.0829E4,9.311E3,7.793E3,8.741E3,7.951E3,1.5878E4,4.929E3,5.6E1,1.58E2,6.1E1,8.22E2,8.8E1,2.54E2,1.689E3,3.7E2,1.843E3,4.7E1,6.98E2,1.47E2,2.235E3,7.651E3,4.816E3,1.758E3,2.054E3,4.4E3,2.21E3,6.253E3,2.717E3,4.595E3,8.81E2,5.43E2,8.977E3,1.27E2,9E1,2.677E3,1.237E3,1.837E3,1.742E3,1.493E3,6.184E3,5.269E3,5.015E3,1.553E3,3.708E3,1E0,1.76E2,9.5E1,7.2E1,1.412E3,4.72E2,3.13E3,5.49E2,1.013E3,4.999E3,1.864E3,1.586E3,4.131E3,6.698E3,6.371E3,2.94E3,3.747E3,4.046E3,2.625E3,6.116E3,7.767E3,1.84E2,2.547E3,1.3331E4,4.64E3,2.89E2,3.6E1,2E1],"tree_param":{"num_deleted":"0","num_feature":"7","num_nodes":"127","size_leaf_vector":"1"}},{"base_weights":[1.3741231E-4,1.6933759E-1,-1.2387157E-1,1.3482665E-1,3.842115E-1,-8.086017E-3,-1.7902382E-1,3.0114666E-1,6.968628E-2,6.9415575E-1,2.3281346E-1,7.748017E-2,-9.211418E-2,-1.3059656E-1,-2.780079E-1,6.445879E-1,1.8641105E-1,2.392487E-1,-4.039417E-2,1.362324E0,5.483407E-1,3.730732E-1,-1.480571E-1,3.3567148E-1,1.1099242E-2,3.2613087E-2,-2.0872612E-1,-7.92814E-2,-2.4629737E-1,-2.4176458E-1,-4.5199278E-1,1.1143588E0,2.6174504E-1,6.1577946E-1,1.0711732E-1,6.541576E-1,1.6745275E-1,9.1922665E-3,-5.4117954E-1,3.7460408E0,6.278602E-1,7.317677E-1,2.7852607E-1,6.4857423E-1,2.782316E-1,2.2661744E-1,-2.0987096E-1,9.390815E-1,1.234418E-1,1.5428357E-1,-1.062889E-1,4.246269E-1,-2.426461E-2,-6.202012E-2,-3.159946E-1,8.833139E-2,-1.1144221E-1,-2.1521859E-1,-3.5374168E-1,-1.9910647E-1,-3.4413528E-1,-5.058281E-1,2.5575554E-1,4.989106E-1,1.5452425E-1,1.24818176E-1,-2.8484888E-2,2.8905252E-1,-4.9353626E-2,4.9978305E-2,-1.5415968E-1,2.844704E-1,7.8057155E-2,6.0560826E-2,-7.557219E-2,2.4049962E-2,-4.3873537E-2,-2.3664069E-1,7.91358E-2,1.4096944E0,4.0959993E-1,3.131743E-1,6.878348E-2,2.542302E-1,-2.184873E-2,1.4028046E-1,2.635916E-2,3.623399E-1,1.6180715E-1,1.2988415E-1,8.96941E-3,1.5187928E-1,2.2554375E-2,-1.2623715E-2,-9.728612E-2,3.5989103E-1,5.8692515E-2,1.0711899E-1,-2.1310207E-2,4.2301353E-2,5.0961554E-1,3.0596083E-2,-5.5453252E-2,7.995798E-2,4.862112E-1,3.208255E-3,-7.90087E-2,1.6970715E-2,-3.6440805E-2,-1.0965261E-1,-4.389627E-2,1.2628403E-1,-4.670422E-2,-9.452699E-3,-5.880605E-2,6.6294976E-2,-7.326434E-2,-2.8926346E-2,-1.3004546E-1,-6.718354E-2,2.313025E-3,-6.039337E-2,-1.1138401E-1,-1.5405959E-1,5.818636E-1,2.0652977E-1,-1.9131838E-1],"categories":[4,0,0,3,5,6,10,11,12,15,20,23,24,25,26,27,28,0,1,2,3,4,5,6,7,8,9,11,12,13,15,16,17,18,19,20,22,23,24,25,26,27,28,29,3,5,7,8,9,10,11,12,13,14,15,18,19,20,22,23,24,25,26,29,30,0,5,6,0,4,6,10,11,0,1,2,3,4,5,6,10,11,2,6,7,9,10,11,0,1,2,3,4,5,7,8,9,10,11,1,2,3,4,5,7,9,10,11,12,13,15,16,17,18,19,20,21,22,23,24,25,26,27,28,29,0,1,2,3,4,5,6,7,8,9,10,11,12,15,19,20,21,22,23,24,25,26,27,28,29,3,6,7,9,10,11,12,13,14,16,18,19,20,21,22,27,28,29,30,11,12,15,20,23,24,28,0,6,26,5,6,10,12,13,14,15,16,18,19,21,22,23,24,25,26,27,28,29,30,0,1,2,3,4,5,6,7,8,9,11,12,13,14,15,16,17,18,19,20,21,22,23,24,25,26,27,28,29,1,2,3,4,5,7,8,9,10,11,12,13,14,15,16,17,18,19,20,21,22,23,24,25,26,27,28,29,0,7,8,0,1,2,3,4,5,6,7,8,9,10,11,12,13,14,15,18,19,20,21,22,23,24,25,26,27,28,29,30,1,2,3,4,5,7,8,9,10,11,12,13,14,15,16,17,18,19,20,21,22,23,24,25,26,27,28,29,0,1,5,6,0,1,2,5,6,1,2,3,4,5,7,8,9,10,11,12,14,15,16,17,18,20,22,23,24,27,28,29,30,0,4,6,8,9,10,11,12,13,14,15,16,17,18,20,21,23,24,25,26,1,2,3,4,5,6,7,8,9,10,0,1,2,7,9,10,11,0,1,2,5,6,12,20,23,2,8,12,14,15,18,19,20,21,22,23,24,0,1,2,3,4,5,6,7,8,9,11,12,13,15,16,17,18,19,20,21,22,23,24,25,26,27,28,29,5,6,0,1,2,0,4,5,6,7,8,11,18,21,23,24,25,28,29,30,8,16,20,27,13,14,15,16,19,20,21,22,23,24,25,26,27,0,1,2,3,5,7,8,9,10,11,12,14,15,16,17,18,19,20,21,22,23,24,25,26,27,28,29,1,2,3,5,7,8,9,10,11,12,13,14,15,16,17,18,19,20,21,22,23,24,25,26,27,28,29,30,16,17,0,2,4,0,1,2,4,6,7,8,9,12,13,14,15,16,17,18,19,20,21,22,24,25,26,27,28,29,30,0,1,2,4,6,7,10,12,13,14,15,16,17,18,20,21,23,27,28,30,0,1,2,3,4,5,6,9,10,11,12,13,14,15,16,17,18,19,20,21,22,23,24,25,26,27,28,30,3,5,7,8,9,10,11,18,22,23,25,26,0,1,2,3,4,5,11,0,1,2,3,4,6,9,10,11,0,1,2,7,8,9,10,11,25,26,3,9,10,11,13,14,16,19,20,21,22,27,0,1,2,5,6,7,10,12,14,15,16,17,18,19,21,24,25,26,29,4,6,7,11,12,13,15,16,17,18,19,20,21,22,24,25,27,1,7,8,9,0,1,3,4,5,6,8,11,12,13,14,15,16,17,18,19,20,21,24,25,26,27,28,29,11,25,0,0,1,10,12,15,19,24,26,29],"categories_nodes":[0,1,2,3,4,5,6,7,8,9,10,11,12,13,14,15,16,17,18,19,20,21,22,23,24,25,26,27,28,29,31,32,33,34,35,36,37,39,40,41,42,43,44,45,46,47,48,50,52,53,54,55,56,57,58,60,61,62],"categories_segments":[0,1,2,17,44,65,68,73,82,88,99,125,150,169,176,179,199,228,256,259,288,316,320,325,349,369,379,386,391,394,406,434,436,437,439,454,458,471,498,526,528,531,557,577,605,617,624,633,641,643,655,656,674,691,695,719,721,722],"categories_sizes":[1,1,15,27,21,3,5,9,6,11,26,25,19,7,3,20,29,28,3,29,28,4,5,24,20,10,7,5,3,12,28,2,1,2,15,4,13,27,28,2,3,26,20,28,12,7,9,8,2,12,1,18,17,4,24,2,1,9],"default_left":[1,1,1,1,1,1,1,1,1,1,1,1,1,1,1,1,1,1,1,1,1,1,1,1,1,1,1,1,1,1,0,1,1,1,1,1,1,1,0,1,1,1,1,1,1,1,1,1,1,0,1,0,1,1,1,1,1,1,1,0,1,1,1,0,0,0,0,0,0,0,0,0,0,0,0,0,0,0,0,0,0,0,0,0,0,0,0,0,0,0,0,0,0,0,0,0,0,0,0,0,0,0,0,0,0,0,0,0,0,0,0,0,0,0,0,0,0,0,0,0,0,0,0,0,0,0,0],"id":4,"left_children":[1,3,5,7,9,11,13,15,17,19,21,23,25,27,29,31,33,35,37,39,41,43,45,47,49,51,53,55,57,59,61,63,65,67,69,71,73,75,77,79,81,83,85,87,89,91,93,95,97,99,101,103,105,107,109,111,113,115,117,119,121,123,125,-1,-1,-1,-1,-1,-1,-1,-1,-1,-1,-1,-1,-1,-1,-1,-1,-1,-1,-1,-1,-1,-1,-1,-1,-1,-1,-1,-1,-1,-1,-1,-1,-1,-1,-1,-1,-1,-1,-1,-1,-1,-1,-1,-1,-1,-1,-1,-1,-1,-1,-1,-1,-1,-1,-1,-1,-1,-1,-1,-1,-1,-1,-1,-1],"loss_changes":[3.5052678E3,5.238905E2,6.1561206E2,6.59551E2,4.5862366E2,2.2365112E2,3.1297607E2,6.7500464E2,8.165695E2,3.118053E2,3.5102985E2,2.641422E2,2.2827113E2,2.6032104E2,1.3515637E2,7.7125793E2,4.3722382E2,5.128829E2,6.587277E2,1.0025807E3,1.3020581E2,1.2529083E2,4.101774E1,4.03534E2,2.0610103E2,1.6910956E2,1.2762265E2,1.6376439E2,4.4910095E1,7.746643E1,1.4099188E2,6.3243115E2,1.3021747E2,5.433609E2,4.005633E2,2.940293E2,2.1195575E2,2.6630347E2,4.7660144E2,2.9985522E2,7.272659E1,1.4598712E2,3.8459824E1,7.441223E1,1.3730399E2,1.0591449E1,2.914827E1,1.586051E2,1.0602226E2,1.1305026E2,1.10260376E2,1.8129326E2,5.5369965E1,2.416734E1,3.9306335E1,3.9702975E2,1.7230771E2,1.3225131E2,6.1947784E1,6.439456E1,2.0166626E1,6.572583E1,1.0172554E2,0E0,0E0,0E0,0E0,0E0,0E0,0E0,0E0,0E0,0E0,0E0,0E0,0E0,0E0,0E0,0E0,0E0,0E0,0E0,0E0,0E0,0E0,0E0,0E0,0E0,0E0,0E0,0E0,0E0,0E0,0E0,0E0,0E0,0E0,0E0,0E0,0E0,0E0,0E0,0E0,0E0,0E0,0E0,0E0,0E0,0E0,0E0,0E0,0E0,0E0,0E0,0E0,0E0,0E0,0E0,0E0,0E0,0E0,0E0,0E0,0E0,0E0,0E0,0E0],"parents":[2147483647,0,0,1,1,2,2,3,3,4,4,5,5,6,6,7,7,8,8,9,9,10,10,11,11,12,12,13,13,14,14,15,15,16,16,17,17,18,18,19,19,20,20,21,21,22,22,23,23,24,24,25,25,26,26,27,27,28,28,29,29,30,30,31,31,32,32,33,33,34,34,35,35,36,36,37,37,38,38,39,39,40,40,41,41,42,42,43,43,44,44,45,45,46,46,47,47,48,48,49,49,50,50,51,51,52,52,53,53,54,54,55,55,56,56,57,57,58,58,59,59,60,60,61,61,62,62],"right_children":[2,4,6,8,10,12,14,16,18,20,22,24,26,28,30,32,34,36,38,40,42,44,46,48,50,52,54,56,58,60,62,64,66,68,70,72,74,76,78,80,82,84,86,88,90,92,94,96,98,100,102,104,106,108,110,112,114,116,118,120,122,124,126,-1,-1,-1,-1,-1,-1,-1,-1,-1,-1,-1,-1,-1,-1,-1,-1,-1,-1,-1,-1,-1,-1,-1,-1,-1,-1,-1,-1,-1,-1,-1,-1,-1,-1,-1,-1,-1,-1,-1,-1,-1,-1,-1,-1,-1,-1,-1,-1,-1,-1,-1,-1,-1,-1,-1,-1,-1,-1,-1,-1,-1,-1,-1,-1],"split_conditions":[NaN,NaN,NaN,NaN,NaN,NaN,NaN,NaN,NaN,NaN,NaN,NaN,NaN,NaN,NaN,NaN,NaN,NaN,NaN,NaN,NaN,NaN,NaN,NaN,NaN,NaN,NaN,NaN,NaN,NaN,2.035E1,NaN,NaN,NaN,NaN,NaN,NaN,NaN,2.392E0,NaN,NaN,NaN,NaN,NaN,NaN,NaN,NaN,NaN,NaN,2.5837E1,NaN,1.77E1,NaN,NaN,NaN,NaN,NaN,NaN,NaN,9.7E0,NaN,NaN,NaN,4.989106E-1,1.5452425E-1,1.24818176E-1,-2.8484888E-2,2.8905252E-1,-4.9353626E-2,4.9978305E-2,-1.5415968E-1,2.844704E-1,7.8057155E-2,6.0560826E-2,-7.557219E-2,2.4049962E-2,-4.3873537E-2,-2.3664069E-1,7.91358E-2,1.4096944E0,4.0959993E-1,3.131743E-1,6.878348E-2,2.542302E-1,-2.184873E-2,1.4028046E-1,2.635916E-2,3.623399E-1,1.6180715E-1,1.2988415E-1,8.96941E-3,1.5187928E-1,2.2554375E-2,-1.2623715E-2,-9.728612E-2,3.5989103E-1,5.8692515E-2,1.0711899E-1,-2.1310207E-2,4.2301353E-2,5.0961554E-1,3.0596083E-2,-5.5453252E-2,7.995798E-2,4.862112E-1,3.208255E-3,-7.90087E-2,1.6970715E-2,-3.6440805E-2,-1.0965261E-1,-4.389627E-2,1.2628403E-1,-4.670422E-2,-9.452699E-3,-5.880605E-2,6.6294976E-2,-7.326434E-2,-2.8926346E-2,-1.3004546E-1,-6.718354E-2,2.313025E-3,-6.039337E-2,-1.1138401E-1,-1.5405959E-1,5.818636E-1,2.0652977E-1,-1.9131838E-1],"split_indices":[1,3,0,0,5,6,4,4,4,4,0,0,5,0,0,5,0,0,0,5,0,6,6,5,5,4,4,6,0,5,2,0,6,1,4,5,0,5,2,0,5,5,1,5,5,5,5,4,4,2,4,2,5,5,3,5,5,4,5,2,0,3,5,0,0,0,0,0,0,0,0,0,0,0,0,0,0,0,0,0,0,0,0,0,0,0,0,0,0,0,0,0,0,0,0,0,0,0,0,0,0,0,0,0,0,0,0,0,0,0,0,0,0,0,0,0,0,0,0,0,0,0,0,0,0,0,0],"split_type":[1,1,1,1,1,1,1,1,1,1,1,1,1,1,1,1,1,1,1,1,1,1,1,1,1,1,1,1,1,1,0,1,1,1,1,1,1,1,0,1,1,1,1,1,1,1,1,1,1,0,1,0,1,1,1,1,1,1,1,0,1,1,1,0,0,0,0,0,0,0,0,0,0,0,0,0,0,0,0,0,0,0,0,0,0,0,0,0,0,0,0,0,0,0,0,0,0,0,0,0,0,0,0,0,0,0,0,0,0,0,0,0,0,0,0,0,0,0,0,0,0,0,0,0,0,0,0],"sum_hessian":[1.67056E5,7.0654E4,9.6402E4,6.0878E4,9.776E3,3.1104E4,6.5298E4,1.7132E4,4.3746E4,3.207E3,6.569E3,1.5411E4,1.5693E4,4.3848E4,2.145E4,4.289E3,1.2843E4,1.722E4,2.6526E4,5.73E2,2.634E3,4.801E3,1.768E3,3.151E3,1.226E4,7.583E3,8.11E3,3.0377E4,1.3471E4,1.7754E4,3.696E3,1.925E3,2.364E3,2.001E3,1.0842E4,2.539E3,1.4681E4,2.4137E4,2.389E3,1.34E2,4.39E2,1.567E3,1.067E3,1.228E3,3.573E3,2.5E2,1.518E3,8.19E2,2.332E3,5.523E3,6.737E3,9.6E2,6.623E3,3.426E3,4.684E3,4.89E3,2.5487E4,1.0451E4,3.02E3,1.2534E4,5.22E3,3.435E3,2.61E2,1.004E3,9.21E2,1.65E3,7.14E2,1.384E3,6.17E2,9.895E3,9.47E2,1.453E3,1.086E3,1.3568E4,1.113E3,1.6571E4,7.566E3,1.827E3,5.62E2,9.5E1,3.9E1,2.14E2,2.25E2,1.37E3,1.97E2,5.35E2,5.32E2,1.99E2,1.029E3,2.201E3,1.372E3,8.7E1,1.63E2,6.16E2,9.02E2,6.06E2,2.13E2,1.059E3,1.273E3,5.477E3,4.6E1,1.845E3,4.892E3,8.49E2,1.11E2,5.779E3,8.44E2,1.144E3,2.282E3,3.625E3,1.059E3,2.069E3,2.821E3,1.3104E4,1.2383E4,6.51E2,9.8E3,7.15E2,2.305E3,1.119E4,1.344E3,8.35E2,4.385E3,3.425E3,1E1,1.76E2,8.5E1],"tree_param":{"num_deleted":"0","num_feature":"7","num_nodes":"127","size_leaf_vector":"1"}},{"base_weights":[1.308113E-4,1.4500439E-1,-7.4768685E-2,2.0767003E-1,-3.2303894E-3,1.6841471E-1,-1.048975E-1,4.2262766E-1,1.3560413E-1,4.1368604E-1,-1.4278334E-1,2.3081371E-1,-1.871426E-1,-2.86761E-2,-1.4327501E-1,7.176434E-1,3.260517E-1,7.512787E-1,1.0934126E-1,1.0180844E0,-4.7314424E-2,5.382509E-2,-2.3600656E-1,3.706201E-1,9.990015E-2,2.0907114E-1,-3.3776644E-1,4.531655E-2,-1.254249E-1,-9.16427E-2,-2.0389375E-1,3.2556355E-1,1.0544345E0,4.9121675E-1,1.9428922E-1,1.347382E0,-3.485049E-3,5.859834E-2,3.9468068E-1,1.3012358E0,-1.4244059E-1,3.0738142E-1,-2.1970986E-1,2.8833466E0,4.9123477E-2,1.1206824E-1,-3.1583843E-1,4.6826795E-1,-3.236964E-2,3.1251583E-1,2.1439087E-2,9.715262E-1,7.434531E-2,-2.1276443E-1,-6.118882E-1,1.4722988E-1,-5.5793755E-2,-7.887022E-2,-2.1623798E-1,-1.0056067E-1,4.8631334E-1,-1.4782852E-1,-2.776341E-1,2.3523282E-1,-1.3402281E-2,5.212262E-1,2.2205502E-1,2.1571994E-1,7.1179144E-2,1.3104624E-1,-1.596559E-2,4.5623225E-1,-1.2583783E-1,1.1645741E-1,-1.932661E-1,5.8311664E-2,-2.496175E-3,1.6378675E-1,2.011034E-2,8.784208E-1,3.311975E-1,6.949907E-2,-1.3970186E-1,1.9445314E-1,-6.1111905E-2,-2.7240576E-2,-1.1979699E-1,5.9920788E-2,-3.85162E-2,1.1298829E0,3.1547856E-2,-6.148627E-2,-1.3846478E-1,3.445545E-1,1.310471E-1,6.0707737E-2,-3.3170503E-2,2.4253647E-1,5.0781183E-2,5.3829104E-2,-2.3561517E-2,1.1518883E0,-2.10433E-2,8.3118774E-2,-5.9685536E-2,1.2033176E-1,-8.792069E-2,-6.579931E-2,-2.7148655E-1,6.806636E-2,-2.12365E-2,3.545207E-2,-3.6189005E-2,1.2610812E-2,-3.6756262E-2,-3.778491E-2,-9.656509E-2,-1.5856754E-2,-5.7608087E-2,2.9403177E-1,-9.976887E-2,-3.610526E-2,-8.423814E-2,-6.648423E-2,-1.0782696E-1],"categories":[0,4,1,2,3,4,5,7,9,11,12,13,15,16,17,18,19,23,24,25,26,28,29,0,1,3,4,5,6,7,8,9,10,11,12,15,18,19,20,21,22,23,24,25,26,27,28,29,0,1,2,4,5,8,9,10,11,1,3,0,1,2,4,10,0,1,5,6,0,1,2,4,0,1,2,3,4,5,6,7,8,9,11,12,13,14,15,16,17,18,19,20,21,22,23,24,25,26,27,28,29,0,1,2,3,4,5,6,7,10,11,1,2,3,4,5,7,10,11,12,13,17,18,19,21,23,24,27,28,29,30,2,3,9,10,11,12,14,15,16,17,18,19,21,22,23,24,29,0,1,3,4,5,6,7,8,9,10,11,12,13,14,16,17,18,20,26,27,28,0,1,4,5,7,11,12,14,15,16,17,18,23,24,25,3,6,8,9,10,11,12,13,14,15,18,19,20,21,22,28,2,1,3,4,5,8,9,11,12,14,17,18,19,21,22,24,25,27,30,3,10,11,12,15,16,18,19,20,21,22,23,24,25,27,28,29,30,0,4,29,1,2,3,4,5,6,7,10,11,12,13,14,15,18,19,22,23,24,25,26,27,28,0,1,2,3,5,6,7,8,9,10,11,2,7,0,0,1,2,4,5,6,7,9,10,11,0,1,2,3,4,5,6,7,8,9,11,1,10,0,1,2,4,5,6,7,9,10,11,12,13,14,15,16,17,20,21,22,23,24,27,2,6,7,10,11,0,2,6,7,10,11,0,1,2,3,4,7,8,9,14,17,18,19,21,22,23,24,25,26,28,0,1,3,5,6,8,9,13,14,15,16,18,20,21,22,23,24,25,26,27,28,29,0,2,4,6,1,2,3,4,5,7,8,9,10,11,12,13,14,15,16,17,18,19,20,23,24,25,26,27,28,29,0,9,10,15,20,21,22,23,25,29,4,6,7,8,9,11,13,14,15,16,17,18,20,21,22,23,24,26,27,28,30,8,10,11,12,13,16,17,18,19,20,0,1,2,3,4,5,6,7,10,11,13,14,15,16,17,18,20,21,23,24,25,26,27,28,29,2,3,4,5,7,9,10,14,15,16,17,18,20,21,22,25,26,0,1,3,5,6,7,8,9,10,11,12,13,14,15,16,17,18,19,20,21,22,23,24,25,26,27,28,29,1,4,10,11,12,13,15,18,19,22,1,5,6,0,1,3,4,5,6,7,8,9,10,11,2,3,5,10,12,17,18,19,24,29,0,1,2,3,4,5,7,8,9,10,11,12,13,14,15,16,17,18,19,20,21,22,23,24,25,26,27,28,29,30,1,2,3,4,5,6,7,8,9,10,11,12,13,14,15,16,17,18,19,21,22,23,24,25,26,27,29,0,1,2,3,4,5,6,7,8,10,11,12,13,14,15,16,17,18,20,23,24,25,26,27,28,30,0,1,2,4,5,6,7,8,9,13,14,15,17,18,19,20,21,22,24,25,26,27,28,29,30,0,1,2,3,4,5,6,7,8,9,10,11,12,13,14,15,16,17,18,19,20,24,25,26,27,28,29,30,0,1,2,5,6,1,4,6,7,8,9,11,12,13,18,20,0,3,4,5,10,2,8,9,10,13,19,21,26,27,28,29,0,5,7,8,9,11,12,15,22,23,25,26,27,1,11,12,18,21,22,25,28,1,4,5,6,10,11,1,3,4,5,7,9,10,3,5,6,7,12,21,23,29,2],"categories_nodes":[0,1,2,3,4,5,6,7,8,9,10,11,12,13,14,15,16,17,18,19,20,21,22,23,24,25,26,27,28,30,31,32,33,34,35,36,37,38,39,40,41,42,44,45,46,47,48,49,50,51,53,54,55,56,57,58,59,60,61,62],"categories_segments":[0,2,23,48,57,59,64,68,72,101,111,131,148,169,184,200,201,219,237,238,240,262,273,275,276,286,297,299,321,326,332,351,373,377,403,405,413,434,444,469,486,514,524,527,538,548,578,605,631,656,684,689,700,705,716,729,737,743,750,758],"categories_sizes":[2,21,25,9,2,5,4,4,29,10,20,17,21,15,16,1,18,18,1,2,22,11,2,1,10,11,2,22,5,6,19,22,4,26,2,8,21,10,25,17,28,10,3,11,10,30,27,26,25,28,5,11,5,11,13,8,6,7,8,1],"default_left":[1,1,1,1,1,1,1,1,1,1,1,1,1,1,1,1,1,1,1,1,1,1,1,1,1,1,1,1,1,0,1,1,1,1,1,1,1,1,1,1,1,1,1,0,1,1,1,1,1,1,1,1,0,1,1,1,1,1,1,1,1,1,1,0,0,0,0,0,0,0,0,0,0,0,0,0,0,0,0,0,0,0,0,0,0,0,0,0,0,0,0,0,0,0,0,0,0,0,0,0,0,0,0,0,0,0,0,0,0,0,0,0,0,0,0,0,0,0,0,0,0,0,0,0,0],"id":5,"left_children":[1,3,5,7,9,11,13,15,17,19,21,23,25,27,29,31,33,35,37,39,41,43,45,47,49,51,53,55,57,59,61,63,65,67,69,71,73,75,77,79,81,83,85,-1,87,89,91,93,95,97,99,101,103,105,107,109,111,113,115,117,119,121,123,-1,-1,-1,-1,-1,-1,-1,-1,-1,-1,-1,-1,-1,-1,-1,-1,-1,-1,-1,-1,-1,-1,-1,-1,-1,-1,-1,-1,-1,-1,-1,-1,-1,-1,-1,-1,-1,-1,-1,-1,-1,-1,-1,-1,-1,-1,-1,-1,-1,-1,-1,-1,-1,-1,-1,-1,-1,-1,-1,-1,-1,-1],"loss_changes":[1.8127394E3,5.2887354E2,8.0687714E2,6.198507E2,9.843808E2,2.6938638E2,2.8662036E2,2.860194E2,4.8453046E2,1.1822666E3,2.3234439E2,1.8899176E2,1.0826908E2,2.3491844E2,2.0395898E2,3.267422E2,1.6466882E2,5.5160297E2,4.161889E2,6.035029E2,1.4731177E2,1.8277231E2,2.3897983E2,1.9653448E2,8.8992035E1,5.128897E1,4.489502E1,1.9162018E2,6.0106125E1,1.81456E2,1.2388782E2,1.9459259E2,2.8459998E2,1.9419159E2,2.5292314E2,2.1049231E2,1.3627087E2,2.2175975E2,2.1507428E2,4.703911E2,4.376091E1,1.3738312E2,3.749572E1,0E0,1.0902564E2,4.0123665E1,1.1292383E2,8.548572E1,1.7918968E1,1.0201996E2,6.1585205E1,2.2434058E2,2.3656387E1,4.4681637E1,4.7085236E1,1.6085078E2,1.0530737E2,4.963076E1,4.592578E1,1.5123346E2,2.1665587E2,6.2190216E1,5.9236633E1,0E0,0E0,0E0,0E0,0E0,0E0,0E0,0E0,0E0,0E0,0E0,0E0,0E0,0E0,0E0,0E0,0E0,0E0,0E0,0E0,0E0,0E0,0E0,0E0,0E0,0E0,0E0,0E0,0E0,0E0,0E0,0E0,0E0,0E0,0E0,0E0,0E0,0E0,0E0,0E0,0E0,0E0,0E0,0E0,0E0,0E0,0E0,0E0,0E0,0E0,0E0,0E0,0E0,0E0,0E0,0E0,0E0,0E0,0E0,0E0,0E0,0E0],"parents":[2147483647,0,0,1,1,2,2,3,3,4,4,5,5,6,6,7,7,8,8,9,9,10,10,11,11,12,12,13,13,14,14,15,15,16,16,17,17,18,18,19,19,20,20,21,21,22,22,23,23,24,24,25,25,26,26,27,27,28,28,29,29,30,30,31,31,32,32,33,33,34,34,35,35,36,36,37,37,38,38,39,39,40,40,41,41,42,42,44,44,45,45,46,46,47,47,48,48,49,49,50,50,51,51,52,52,53,53,54,54,55,55,56,56,57,57,58,58,59,59,60,60,61,61,62,62],"right_children":[2,4,6,8,10,12,14,16,18,20,22,24,26,28,30,32,34,36,38,40,42,44,46,48,50,52,54,56,58,60,62,64,66,68,70,72,74,76,78,80,82,84,86,-1,88,90,92,94,96,98,100,102,104,106,108,110,112,114,116,118,120,122,124,-1,-1,-1,-1,-1,-1,-1,-1,-1,-1,-1,-1,-1,-1,-1,-1,-1,-1,-1,-1,-1,-1,-1,-1,-1,-1,-1,-1,-1,-1,-1,-1,-1,-1,-1,-1,-1,-1,-1,-1,-1,-1,-1,-1,-1,-1,-1,-1,-1,-1,-1,-1,-1,-1,-1,-1,-1,-1,-1,-1,-1,-1],"split_conditions":[NaN,NaN,NaN,NaN,NaN,NaN,NaN,NaN,NaN,NaN,NaN,NaN,NaN,NaN,NaN,NaN,NaN,NaN,NaN,NaN,NaN,NaN,NaN,NaN,NaN,NaN,NaN,NaN,NaN,2.5837E1,NaN,NaN,NaN,NaN,NaN,NaN,NaN,NaN,NaN,NaN,NaN,NaN,NaN,2.8833466E0,NaN,NaN,NaN,NaN,NaN,NaN,NaN,NaN,1.4E0,NaN,NaN,NaN,NaN,NaN,NaN,NaN,NaN,NaN,NaN,2.3523282E-1,-1.3402281E-2,5.212262E-1,2.2205502E-1,2.1571994E-1,7.1179144E-2,1.3104624E-1,-1.596559E-2,4.5623225E-1,-1.2583783E-1,1.1645741E-1,-1.932661E-1,5.8311664E-2,-2.496175E-3,1.6378675E-1,2.011034E-2,8.784208E-1,3.311975E-1,6.949907E-2,-1.3970186E-1,1.9445314E-1,-6.1111905E-2,-2.7240576E-2,-1.1979699E-1,5.9920788E-2,-3.85162E-2,1.1298829E0,3.1547856E-2,-6.148627E-2,-1.3846478E-1,3.445545E-1,1.310471E-1,6.0707737E-2,-3.3170503E-2,2.4253647E-1,5.0781183E-2,5.3829104E-2,-2.3561517E-2,1.1518883E0,-2.10433E-2,8.3118774E-2,-5.9685536E-2,1.2033176E-1,-8.792069E-2,-6.579931E-2,-2.7148655E-1,6.806636E-2,-2.12365E-2,3.545207E-2,-3.6189005E-2,1.2610812E-2,-3.6756262E-2,-3.778491E-2,-9.656509E-2,-1.5856754E-2,-5.7608087E-2,2.9403177E-1,-9.976887E-2,-3.610526E-2,-8.423814E-2,-6.648423E-2,-1.0782696E-1],"split_indices":[1,0,0,4,1,4,6,1,0,4,5,5,5,5,5,3,5,5,3,0,5,4,0,3,4,4,4,0,4,2,4,5,5,6,0,4,5,5,5,5,5,0,5,0,6,4,5,5,5,5,5,5,2,6,5,4,5,0,0,4,4,0,3,0,0,0,0,0,0,0,0,0,0,0,0,0,0,0,0,0,0,0,0,0,0,0,0,0,0,0,0,0,0,0,0,0,0,0,0,0,0,0,0,0,0,0,0,0,0,0,0,0,0,0,0,0,0,0,0,0,0,0,0,0,0],"split_type":[1,1,1,1,1,1,1,1,1,1,1,1,1,1,1,1,1,1,1,1,1,1,1,1,1,1,1,1,1,0,1,1,1,1,1,1,1,1,1,1,1,1,1,0,1,1,1,1,1,1,1,1,0,1,1,1,1,1,1,1,1,1,1,0,0,0,0,0,0,0,0,0,0,0,0,0,0,0,0,0,0,0,0,0,0,0,0,0,0,0,0,0,0,0,0,0,0,0,0,0,0,0,0,0,0,0,0,0,0,0,0,0,0,0,0,0,0,0,0,0,0,0,0,0,0],"sum_hessian":[1.67056E5,5.6933E4,1.10123E5,4.0016E4,1.6917E4,1.2139E4,9.7984E4,1.0046E4,2.997E4,4.242E3,1.2675E4,1.0327E4,1.812E3,3.2814E4,6.517E4,2.476E3,7.57E3,1.225E3,2.8745E4,1.835E3,2.407E3,4.077E3,8.598E3,4.993E3,5.334E3,4.99E2,1.313E3,1.8594E4,1.422E4,3.5195E4,2.9975E4,1.145E3,1.331E3,3.358E3,4.212E3,6.84E2,5.41E2,2.4406E4,4.339E3,1.475E3,3.6E2,7.87E2,1.62E3,1E0,4.076E3,1.604E3,6.994E3,4.019E3,9.74E2,1.437E3,3.897E3,7.4E1,4.25E2,9.03E2,4.1E2,9.26E3,9.334E3,9.402E3,4.818E3,3.4661E4,5.34E2,1.703E4,1.2945E4,5.11E2,6.34E2,4.18E2,9.13E2,1.769E3,1.589E3,2.127E3,2.085E3,6.23E2,6.1E1,3.36E2,2.05E2,8.057E3,1.6349E4,2.968E3,1.371E3,1.58E2,1.317E3,1.67E2,1.93E2,4.72E2,3.15E2,9.44E2,6.76E2,2.205E3,1.871E3,2E0,1.602E3,3.973E3,3.021E3,1.76E2,3.843E3,2.43E2,7.31E2,3.21E2,1.116E3,1.51E3,2.387E3,1.9E1,5.5E1,2.44E2,1.81E2,1.04E2,7.99E2,1.76E2,2.34E2,6.782E3,2.478E3,2.534E3,6.8E3,2.494E3,6.908E3,2.599E3,2.219E3,2.2781E4,1.188E4,3.33E2,2.01E2,1.4115E4,2.915E3,7.685E3,5.26E3],"tree_param":{"num_deleted":"0","num_feature":"7","num_nodes":"125","size_leaf_vector":"1"}},{"base_weights":[1.4090704E-4,6.5076165E-2,-8.26799E-2,1.5893279E-1,1.423345E-2,-5.540036E-2,-1.5708879E-1,2.4365592E-1,3.55953E-2,8.0562204E-2,-5.8756653E-2,-1.2656017E-2,-1.3775186E-1,-5.6697227E-2,-2.433798E-1,4.0453398E-1,1.5410145E-1,1.9032295E-1,-8.3246924E-2,2.0426503E-1,3.306056E-2,6.622384E-2,-1.09378725E-1,4.347674E-2,-6.779081E-2,-1.3162729E-1,-1.313701E0,1.3915282E-2,-1.8612853E-1,-2.008269E-1,-4.3742198E-1,6.874062E-1,2.698357E-1,3.2328942E-1,3.7672773E-2,3.8618237E-1,1.4388709E-1,4.22113E-2,-1.9309929E-1,3.0358553E-1,4.6114333E-2,1.260801E-1,-1.21886395E-2,6.3701123E-1,2.7470822E-2,9.066624E-2,-1.4179854E-1,3.521538E-2,9.691084E-1,2.2718966E-2,-1.2985435E-1,-8.756329E-2,-1.8480237E-1,-2.1797414E-1,-4.324542E-1,1.4247376E-1,-6.356623E-2,1.1291986E-1,-2.3099944E-1,7.95582E-1,-2.0587504E-1,-3.3993375E-1,-5.879627E-1,4.0040442E-1,1.6501562E-1,1.6274415E-1,5.3285193E-2,1.6848202E-1,6.954731E-2,4.6862166E-2,-2.345655E-2,2.8429317E-1,7.030776E-2,3.7825134E-2,2.3864314E-1,7.524539E-2,-2.8575107E-2,-7.3051885E-2,1.1012611E-1,1.4853816E-1,2.4918947E-2,8.676847E-2,-1.9961238E-2,6.2617525E-2,-4.8872117E-2,-1.0058314E-2,4.1500606E-2,2.928831E-1,-6.6296645E-2,3.401722E-2,-2.6412927E-2,7.256604E-2,-3.364328E-2,-2.8594129E-2,-6.961273E-2,5.6432754E-2,2.6985828E-3,5.245254E-2,4.8130074E-1,2.5705574E-2,-2.6640754E-2,-1.8569598E-2,-6.773223E-2,-3.3917896E-2,1.6603496E-2,-3.0738322E-2,-7.4928924E-2,1.1161243E-1,7.4322145E-3,1.5447905E0,-2.03413E-2,1.5747198E-1,-6.5039985E-2,-5.765301E-3,-8.430279E-2,4.4822213E-1,-6.063646E-2,-4.557363E-2,-7.548114E-2,-5.6387134E-2,-1.285353E-1,-1.4702484E-1,-2.942401E-1],"categories":[3,5,7,9,11,12,15,18,23,24,25,26,28,0,1,5,6,3,4,6,10,1,2,9,10,11,3,6,8,9,12,13,14,17,18,19,20,21,22,23,26,27,28,3,7,11,12,15,23,24,28,5,8,9,10,11,16,17,18,19,20,21,22,23,24,25,26,27,28,29,0,4,5,7,9,10,11,12,14,15,16,17,18,19,20,22,23,24,25,29,30,0,1,4,5,6,7,8,10,12,13,14,15,16,19,20,21,24,25,27,1,2,4,6,8,9,10,11,0,1,2,4,5,7,9,10,11,1,2,3,4,6,7,11,12,13,15,16,18,19,20,21,22,24,7,11,12,23,26,26,1,2,3,4,5,7,8,9,10,11,12,13,15,17,18,19,20,21,22,23,24,25,26,27,28,1,2,3,4,5,7,8,9,10,11,12,14,15,16,18,20,23,24,25,26,27,28,29,0,1,2,4,5,6,7,8,9,10,11,12,13,14,15,16,17,18,19,20,21,22,24,25,26,27,28,29,0,14,19,22,27,2,3,4,5,6,7,8,9,11,12,15,16,18,19,20,23,24,25,26,28,3,4,5,6,7,8,9,10,11,12,13,14,15,16,17,18,19,20,21,22,23,25,26,27,28,29,30,1,2,3,4,5,6,7,8,9,10,11,12,13,14,15,16,17,18,19,20,21,22,23,24,25,26,27,28,29,0,1,2,4,6,8,14,19,22,27,29,0,1,2,5,7,1,3,4,10,11,12,15,17,21,22,23,24,25,27,30,4,6,10,0,1,2,5,6,1,2,3,4,3,0,1,3,4,5,7,8,9,10,11,12,13,14,15,16,17,18,19,20,21,22,23,24,25,26,27,28,29,30,0,1,2,4,5,6,7,9,10,11,12,13,14,15,16,17,18,19,20,21,22,23,24,25,26,27,28,29,30,1,2,3,4,6,7,8,10,11,12,13,14,16,17,18,20,21,23,24,25,26,27,28,29,2,4,2,3,4,5,6,7,8,9,10,11,12,13,15,16,17,18,19,20,21,22,23,24,25,26,27,28,29,0,2,3,9,10,11,12,13,15,17,18,20,21,22,23,24,25,26,28,29,30,0,1,2,3,5,6,8,9,12,13,14,15,16,17,18,19,20,21,22,23,24,26,27,28,30,2,3,4,5,6,7,8,9,10,11,12,13,14,15,17,18,19,20,21,22,23,24,26,27,28,29,30,1,5,0,4,0,1,2,3,4,5,7,8,10,11,12,15,16,18,19,20,21,22,23,24,25,29,30,14,17,19,20,22,23,26,0,1,2,5,6,0,1,2,4,15,16,6,7,13,16,18,19,22,24,0,2,5,4,5,6,7,8,9,10,11,12,13,14,15,16,17,18,19,20,21,22,23,24,25,26,27,28,29,30,0,1,2,4,2,3,6,14,0,1,2,3,4,6,7,12,13,30,0,1,2,3,4,5,6,7,8,9,11,12,13,14,15,16,17,18,19,21,22,23,24,25,26,28,30,8,10,17,18,19,21,22,24,25,26,27,28,5,8,9,16,18,20,22,23,24,25,27,29,5,18,24,29],"categories_nodes":[0,1,2,3,4,5,6,7,8,9,10,11,12,13,14,15,16,17,18,19,20,21,22,24,25,27,28,29,30,31,32,33,34,35,37,38,39,40,41,43,44,45,46,47,48,49,50,52,55,56,57,58,59,60,61,62],"categories_segments":[0,13,17,21,26,43,51,70,91,110,118,127,144,145,149,150,175,198,226,231,251,278,307,318,323,338,341,346,350,351,380,409,433,435,462,483,484,508,535,536,537,539,562,569,574,575,580,588,591,618,622,626,636,663,675,687],"categories_sizes":[13,4,4,5,17,8,19,21,19,8,9,17,1,4,1,25,23,28,5,20,27,29,11,5,15,3,5,4,1,29,29,24,2,27,21,1,24,27,1,1,2,23,7,5,1,5,8,3,27,4,4,10,27,12,12,4],"default_left":[1,1,1,1,1,1,1,1,1,1,1,1,1,1,1,1,1,1,1,1,1,1,1,0,1,1,0,1,1,1,1,1,1,1,1,1,0,1,1,1,1,1,0,1,1,1,1,1,1,1,1,0,1,0,0,1,1,1,1,1,1,1,1,0,0,0,0,0,0,0,0,0,0,0,0,0,0,0,0,0,0,0,0,0,0,0,0,0,0,0,0,0,0,0,0,0,0,0,0,0,0,0,0,0,0,0,0,0,0,0,0,0,0,0,0,0,0,0,0,0,0,0,0],"id":6,"left_children":[1,3,5,7,9,11,13,15,17,19,21,23,25,27,29,31,33,35,37,39,41,43,45,47,49,51,53,55,57,59,61,63,65,67,69,71,73,75,77,79,81,83,85,87,89,91,93,95,97,99,101,103,105,-1,-1,107,109,111,113,115,117,119,121,-1,-1,-1,-1,-1,-1,-1,-1,-1,-1,-1,-1,-1,-1,-1,-1,-1,-1,-1,-1,-1,-1,-1,-1,-1,-1,-1,-1,-1,-1,-1,-1,-1,-1,-1,-1,-1,-1,-1,-1,-1,-1,-1,-1,-1,-1,-1,-1,-1,-1,-1,-1,-1,-1,-1,-1,-1,-1,-1,-1],"loss_changes":[8.9843634E2,4.4684085E2,1.490181E2,3.4380212E2,2.9406305E2,1.8911E2,1.7060184E2,2.809386E2,2.4639905E2,1.8698209E2,1.8296483E2,1.0946224E2,1.3203745E2,8.321745E1,8.736267E1,2.6554065E2,2.4682764E2,5.2885834E1,1.04461044E2,1.3866846E2,9.678466E1,1.8439471E2,1.3349579E2,1.3398682E2,1.0023347E2,4.277597E1,6.0815887E0,5.8698708E1,4.3153374E1,4.3864502E1,2.7743134E1,1.9921521E2,1.1872885E2,1.11212524E2,1.0197009E2,9.482373E1,5.4503113E1,1.0150619E2,1.1419632E2,2.2902216E2,9.33275E1,1.797561E2,4.9694923E1,1.5449347E2,7.750395E1,8.8078156E1,7.427911E1,6.964076E1,7.792319E1,5.098098E1,6.898213E1,3.6402596E1,4.423697E1,0E0,0E0,5.9867207E1,8.158394E1,5.7166664E1,2.959694E1,3.096505E1,2.1294678E1,1.5497513E1,2.8242157E1,0E0,0E0,0E0,0E0,0E0,0E0,0E0,0E0,0E0,0E0,0E0,0E0,0E0,0E0,0E0,0E0,0E0,0E0,0E0,0E0,0E0,0E0,0E0,0E0,0E0,0E0,0E0,0E0,0E0,0E0,0E0,0E0,0E0,0E0,0E0,0E0,0E0,0E0,0E0,0E0,0E0,0E0,0E0,0E0,0E0,0E0,0E0,0E0,0E0,0E0,0E0,0E0,0E0,0E0,0E0,0E0,0E0,0E0,0E0,0E0],"parents":[2147483647,0,0,1,1,2,2,3,3,4,4,5,5,6,6,7,7,8,8,9,9,10,10,11,11,12,12,13,13,14,14,15,15,16,16,17,17,18,18,19,19,20,20,21,21,22,22,23,23,24,24,25,25,26,26,27,27,28,28,29,29,30,30,31,31,32,32,33,33,34,34,35,35,36,36,37,37,38,38,39,39,40,40,41,41,42,42,43,43,44,44,45,45,46,46,47,47,48,48,49,49,50,50,51,51,52,52,55,55,56,56,57,57,58,58,59,59,60,60,61,61,62,62],"right_children":[2,4,6,8,10,12,14,16,18,20,22,24,26,28,30,32,34,36,38,40,42,44,46,48,50,52,54,56,58,60,62,64,66,68,70,72,74,76,78,80,82,84,86,88,90,92,94,96,98,100,102,104,106,-1,-1,108,110,112,114,116,118,120,122,-1,-1,-1,-1,-1,-1,-1,-1,-1,-1,-1,-1,-1,-1,-1,-1,-1,-1,-1,-1,-1,-1,-1,-1,-1,-1,-1,-1,-1,-1,-1,-1,-1,-1,-1,-1,-1,-1,-1,-1,-1,-1,-1,-1,-1,-1,-1,-1,-1,-1,-1,-1,-1,-1,-1,-1,-1,-1,-1,-1],"split_conditions":[NaN,NaN,NaN,NaN,NaN,NaN,NaN,NaN,NaN,NaN,NaN,NaN,NaN,NaN,NaN,NaN,NaN,NaN,NaN,NaN,NaN,NaN,NaN,2.5837E1,NaN,NaN,1.231E0,NaN,NaN,NaN,NaN,NaN,NaN,NaN,NaN,NaN,1.3525E1,NaN,NaN,NaN,NaN,NaN,4.771E0,NaN,NaN,NaN,NaN,NaN,NaN,NaN,NaN,5.2E0,NaN,-2.1797414E-1,-4.324542E-1,NaN,NaN,NaN,NaN,NaN,NaN,NaN,NaN,4.0040442E-1,1.6501562E-1,1.6274415E-1,5.3285193E-2,1.6848202E-1,6.954731E-2,4.6862166E-2,-2.345655E-2,2.8429317E-1,7.030776E-2,3.7825134E-2,2.3864314E-1,7.524539E-2,-2.8575107E-2,-7.3051885E-2,1.1012611E-1,1.4853816E-1,2.4918947E-2,8.676847E-2,-1.9961238E-2,6.2617525E-2,-4.8872117E-2,-1.0058314E-2,4.1500606E-2,2.928831E-1,-6.6296645E-2,3.401722E-2,-2.6412927E-2,7.256604E-2,-3.364328E-2,-2.8594129E-2,-6.961273E-2,5.6432754E-2,2.6985828E-3,5.245254E-2,4.8130074E-1,2.5705574E-2,-2.6640754E-2,-1.8569598E-2,-6.773223E-2,-3.3917896E-2,1.6603496E-2,-3.0738322E-2,-7.4928924E-2,1.1161243E-1,7.4322145E-3,1.5447905E0,-2.03413E-2,1.5747198E-1,-6.5039985E-2,-5.765301E-3,-8.430279E-2,4.4822213E-1,-6.063646E-2,-4.557363E-2,-7.548114E-2,-5.6387134E-2,-1.285353E-1,-1.4702484E-1,-2.942401E-1],"split_indices":[0,6,4,4,5,0,5,5,5,4,4,5,0,0,0,0,0,5,0,0,5,0,0,2,4,5,2,4,6,1,4,5,5,5,6,0,2,5,3,5,5,3,2,6,1,5,5,6,3,5,5,2,6,0,0,5,1,5,5,5,5,5,5,0,0,0,0,0,0,0,0,0,0,0,0,0,0,0,0,0,0,0,0,0,0,0,0,0,0,0,0,0,0,0,0,0,0,0,0,0,0,0,0,0,0,0,0,0,0,0,0,0,0,0,0,0,0,0,0,0,0,0,0],"split_type":[1,1,1,1,1,1,1,1,1,1,1,1,1,1,1,1,1,1,1,1,1,1,1,0,1,1,0,1,1,1,1,1,1,1,1,1,0,1,1,1,1,1,0,1,1,1,1,1,1,1,1,0,1,0,0,1,1,1,1,1,1,1,1,0,0,0,0,0,0,0,0,0,0,0,0,0,0,0,0,0,0,0,0,0,0,0,0,0,0,0,0,0,0,0,0,0,0,0,0,0,0,0,0,0,0,0,0,0,0,0,0,0,0,0,0,0,0,0,0,0,0,0,0],"sum_hessian":[1.67056E5,9.3639E4,7.3417E4,3.2901E4,6.0738E4,5.3723E4,1.9694E4,1.9503E4,1.3398E4,3.1821E4,2.8917E4,3.5367E4,1.8356E4,9.104E3,1.059E4,6.973E3,1.253E4,5.82E3,7.578E3,8.828E3,2.2993E4,8.336E3,2.0581E4,1.7525E4,1.7842E4,1.8262E4,9.4E1,5.891E3,3.213E3,8.687E3,1.903E3,2.248E3,4.725E3,5.107E3,7.423E3,1.114E3,4.706E3,3.538E3,4.04E3,5.422E3,3.406E3,7.524E3,1.5469E4,5.29E2,7.807E3,2.87E3,1.7711E4,1.7371E4,1.54E2,7.258E3,1.0584E4,9.988E3,8.274E3,1.8E1,7.6E1,2.215E3,3.676E3,4.19E2,2.794E3,4.3E1,8.644E3,1.157E3,7.46E2,3.92E2,1.856E3,1.193E3,3.532E3,1.415E3,3.692E3,3.669E3,3.754E3,2.36E2,8.78E2,4.582E3,1.24E2,1.405E3,2.133E3,3.707E3,3.33E2,2.901E3,2.521E3,1.078E3,2.328E3,5.851E3,1.673E3,1.3549E4,1.92E3,3.79E2,1.5E2,4.477E3,3.33E3,1.644E3,1.226E3,1.1691E4,6.02E3,2.542E3,1.4829E4,6.9E1,8.5E1,4.639E3,2.619E3,6.196E3,4.388E3,8.476E3,1.512E3,3.65E3,4.624E3,7.5E2,1.465E3,2E0,3.674E3,1.86E2,2.33E2,5.34E2,2.26E3,2.5E1,1.8E1,3.967E3,4.677E3,4.27E2,7.3E2,5.99E2,1.47E2],"tree_param":{"num_deleted":"0","num_feature":"7","num_nodes":"123","size_leaf_vector":"1"}},{"base_weights":[1.1801345E-4,7.936713E-2,-4.0853705E-2,1.2529746E-1,-2.7629863E-3,9.951237E-2,-5.8244154E-2,2.2986725E-1,7.031136E-2,2.313193E-1,-7.8394055E-2,1.7793958E-1,-2.6237993E-2,-5.3933352E-2,-3.551745E-1,4.0850487E-1,1.0169338E-2,1.5809597E-1,-3.765725E-2,5.639197E-1,-1.0004274E-1,8.840441E-2,-1.5797098E-1,3.7159175E-1,1.0378315E-1,4.8067296E-1,-7.286481E-2,1.64184E-2,-6.751966E-2,-1.420745E-1,-5.918097E-1,7.730972E-1,3.3037484E-1,-1.3142385E0,5.353905E-2,7.3978776E-1,1.2614933E-1,8.371468E-2,-1.4097808E-1,1.3404983E0,2.9326245E-1,2.3551443E-1,-2.0876147E-1,2.3693013E-1,-5.691603E-2,-5.6400653E-2,-2.8178895E-1,6.60072E-2,4.8626897E-1,3.1406283E-1,5.6300186E-2,1.3952041E0,-4.8019625E-2,3.596108E-2,-1.5505789E-1,1.5222996E-1,-4.2365916E-2,-7.2559625E-2,1.7340952E-1,-3.786037E-2,-8.745601E-1,-4.3647447E-1,-8.9703995E-1,3.178281E-1,-1.5507807E-1,1.9490431E-1,5.327118E-2,-6.262995E-2,-5.782927E-1,1.6140242E-1,-1.3348776E-2,2.81778E-1,-5.750888E-2,1.4835477E-1,3.032523E-2,6.0967E-2,-1.7958269E-2,-8.955654E-3,-7.126495E-2,1.4366132E0,2.9518038E-1,1.1383671E-1,-1.6288881E-1,2.1806952E-1,-4.7919195E-2,-2.7606385E-2,-1.0128981E-1,1.6615787E-1,3.0376302E-2,5.4559756E-2,-3.429676E-2,1.0208961E-2,-6.3833736E-2,-7.3750652E-3,-9.23287E-2,5.6437645E-2,-6.444679E-2,1.7382185E-1,7.1084E-2,1.7485711E-1,1.7955443E-2,5.2649494E-2,-9.968137E-3,1.0834431E-2,6.353219E-1,-3.417315E-2,6.766823E-1,1.342181E-1,-3.4313386E-3,-2.9924495E-2,-1.2859717E-1,6.1208587E-2,-1.7521014E-2,9.491936E-2,-1.6952632E-2,1.1322366E-2,-2.5254436E-2,2.2549118E-1,-1.9832019E-2,-6.5366834E-2,1.1917536E-1,1.763521E-2,-3.4543428E-1,-1.6290124E-1,-2.0013968E-2,-1.6432388E-1,-3.4144926E-1],"categories":[0,4,1,2,3,4,5,7,8,9,11,12,13,15,16,17,18,19,23,24,25,26,27,28,29,0,1,3,4,5,6,7,8,9,10,11,12,15,18,19,20,21,22,23,24,25,26,27,28,29,0,1,2,4,5,9,10,11,1,3,0,1,2,3,4,6,10,11,7,20,21,23,1,11,12,14,15,16,17,19,20,21,23,24,25,27,28,30,0,1,3,4,5,6,7,8,9,10,11,12,13,14,15,16,17,18,19,20,21,22,23,24,25,26,27,28,29,2,7,16,1,2,3,6,8,9,10,11,12,13,14,15,16,17,18,21,22,23,24,26,28,29,30,0,1,2,3,4,5,7,8,9,10,11,12,13,14,15,16,17,18,19,20,21,22,23,24,25,26,27,28,0,1,2,5,6,1,2,3,5,6,8,9,10,13,18,19,20,22,23,25,28,0,1,2,3,4,5,6,8,9,10,11,0,1,2,3,4,5,6,7,8,9,11,12,13,14,15,16,17,18,19,20,21,22,23,24,25,26,27,28,29,0,6,14,0,1,2,3,4,5,6,7,9,10,11,1,2,3,4,5,6,9,10,11,12,13,14,15,18,19,21,22,23,25,26,27,28,29,30,3,6,9,10,11,12,13,14,17,18,19,22,23,24,25,26,28,30,1,2,3,5,10,12,16,17,18,19,21,23,24,29,30,2,0,1,3,5,6,0,1,2,4,6,0,1,3,4,7,8,9,10,11,13,14,15,17,18,19,20,28,0,1,2,4,5,7,8,10,12,14,15,16,17,18,19,20,21,23,24,25,26,28,29,2,3,6,3,6,7,8,2,0,1,2,3,4,5,7,8,9,11,12,13,14,15,18,23,24,27,29,2,5,6,7,8,9,10,17,18,19,20,23,24,25,26,27,28,29,0,1,2,3,4,7,8,9,10,11,14,15,16,17,18,19,20,21,22,23,24,25,26,27,28,30,2,3,10,11,12,14,15,16,17,18,19,20,21,22,23,24,25,27,28,29,30,0,1,3,4,5,6,7,8,9,10,11,12,13,14,15,16,17,18,19,20,21,22,23,24,25,26,27,28,29,30,0,1,2,14,15,16,19,20,21,24,30,0,1,2,4,5,6,7,12,13,14,15,16,17,18,19,20,21,22,23,24,25,26,27,28,29,30,6,0,1,2,3,5,8,9,10,11,3,4,10,11,12,13,18,19,22,25,26,30,0,1,2,4,1,4,5,6,7,8,9,4,5,6,0,1,2,5,6,4,19,25,2,4,5,0,2,4,5,7,8,9,10,11,12,14,16,18,19,20,22,23,24,25,27,29,30,0,2,3,4,5,6,7,10,12,17,18,19,20,21,22,24,25,26,27,28,29,30,1,0,1,3,4,5,6,1,3,10,2,7,8,11,12,13,14,15,16,17,20,21,22,23,24,27,3,0,1,2,3,4,5,6,7,9,10,1,0,4,11,12,14,15,24,26,29,30,1,3,5,6,9,18,19,20,23,25],"categories_nodes":[0,1,2,3,4,5,6,7,8,9,10,11,12,13,14,15,17,18,19,20,21,22,23,24,25,26,27,29,30,31,32,33,34,35,36,37,38,39,40,41,42,43,44,45,46,47,48,49,50,51,53,54,55,56,58,59,60,61,62],"categories_segments":[0,2,25,50,58,60,68,72,73,88,117,120,143,171,176,192,203,232,235,246,270,288,303,304,309,314,331,354,357,361,362,381,399,425,446,476,479,487,513,514,523,535,539,546,549,554,557,560,582,604,605,611,614,630,631,641,642,652,653],"categories_sizes":[2,23,25,8,2,8,4,1,15,29,3,23,28,5,16,11,29,3,11,24,18,15,1,5,5,17,23,3,4,1,19,18,26,21,30,3,8,26,1,9,12,4,7,3,5,3,3,22,22,1,6,3,16,1,10,1,10,1,9],"default_left":[1,1,1,1,1,1,1,1,1,1,1,1,1,1,1,1,0,1,1,1,1,1,1,1,1,1,1,1,0,1,1,1,1,1,1,1,1,1,1,1,1,1,1,1,1,1,1,1,1,1,1,1,0,1,1,1,1,0,1,1,1,1,1,0,0,0,0,0,0,0,0,0,0,0,0,0,0,0,0,0,0,0,0,0,0,0,0,0,0,0,0,0,0,0,0,0,0,0,0,0,0,0,0,0,0,0,0,0,0,0,0,0,0,0,0,0,0,0,0,0,0,0,0,0,0,0,0],"id":7,"left_children":[1,3,5,7,9,11,13,15,17,19,21,23,25,27,29,31,33,35,37,39,41,43,45,47,49,51,53,55,57,59,61,63,65,67,69,71,73,75,77,79,81,83,85,87,89,91,93,95,97,99,101,103,105,107,109,111,113,115,117,119,121,123,125,-1,-1,-1,-1,-1,-1,-1,-1,-1,-1,-1,-1,-1,-1,-1,-1,-1,-1,-1,-1,-1,-1,-1,-1,-1,-1,-1,-1,-1,-1,-1,-1,-1,-1,-1,-1,-1,-1,-1,-1,-1,-1,-1,-1,-1,-1,-1,-1,-1,-1,-1,-1,-1,-1,-1,-1,-1,-1,-1,-1,-1,-1,-1,-1],"loss_changes":[5.4243274E2,2.147703E2,2.6882172E2,2.0993512E2,3.6154938E2,1.1973237E2,1.25402466E2,4.9383215E2,2.2683302E2,5.496794E2,2.0488747E2,1.07335266E2,1.1027167E2,9.2318085E1,7.061453E1,1.9743481E2,3.2425714E2,2.4520361E2,1.346063E2,5.227615E2,9.121604E1,1.0763043E2,1.3140573E2,7.250815E1,5.3979607E1,1.9008478E2,3.821748E1,1.2482189E2,9.830936E1,5.6378704E1,3.1090698E1,4.5265912E2,2.7882477E2,1.209776E2,2.5963104E2,1.2782822E2,1.1549417E2,8.4706635E1,6.221485E1,7.858613E2,1.3333215E2,1.18976944E2,2.8372856E1,1.0598105E2,3.4577732E1,8.120708E1,3.1450897E1,1.9451077E1,3.4810608E1,6.802231E1,4.7099102E1,1.4133014E2,3.8203938E1,3.5868267E1,3.6790142E1,5.1542305E1,5.538475E1,1.0164862E2,2.2981279E2,5.0846165E1,2.384336E1,1.737439E1,1.815834E1,0E0,0E0,0E0,0E0,0E0,0E0,0E0,0E0,0E0,0E0,0E0,0E0,0E0,0E0,0E0,0E0,0E0,0E0,0E0,0E0,0E0,0E0,0E0,0E0,0E0,0E0,0E0,0E0,0E0,0E0,0E0,0E0,0E0,0E0,0E0,0E0,0E0,0E0,0E0,0E0,0E0,0E0,0E0,0E0,0E0,0E0,0E0,0E0,0E0,0E0,0E0,0E0,0E0,0E0,0E0,0E0,0E0,0E0,0E0,0E0,0E0,0E0,0E0,0E0],"parents":[2147483647,0,0,1,1,2,2,3,3,4,4,5,5,6,6,7,7,8,8,9,9,10,10,11,11,12,12,13,13,14,14,15,15,16,16,17,17,18,18,19,19,20,20,21,21,22,22,23,23,24,24,25,25,26,26,27,27,28,28,29,29,30,30,31,31,32,32,33,33,34,34,35,35,36,36,37,37,38,38,39,39,40,40,41,41,42,42,43,43,44,44,45,45,46,46,47,47,48,48,49,49,50,50,51,51,52,52,53,53,54,54,55,55,56,56,57,57,58,58,59,59,60,60,61,61,62,62],"right_children":[2,4,6,8,10,12,14,16,18,20,22,24,26,28,30,32,34,36,38,40,42,44,46,48,50,52,54,56,58,60,62,64,66,68,70,72,74,76,78,80,82,84,86,88,90,92,94,96,98,100,102,104,106,108,110,112,114,116,118,120,122,124,126,-1,-1,-1,-1,-1,-1,-1,-1,-1,-1,-1,-1,-1,-1,-1,-1,-1,-1,-1,-1,-1,-1,-1,-1,-1,-1,-1,-1,-1,-1,-1,-1,-1,-1,-1,-1,-1,-1,-1,-1,-1,-1,-1,-1,-1,-1,-1,-1,-1,-1,-1,-1,-1,-1,-1,-1,-1,-1,-1,-1,-1,-1,-1,-1],"split_conditions":[NaN,NaN,NaN,NaN,NaN,NaN,NaN,NaN,NaN,NaN,NaN,NaN,NaN,NaN,NaN,NaN,1.172E0,NaN,NaN,NaN,NaN,NaN,NaN,NaN,NaN,NaN,NaN,NaN,1.77E1,NaN,NaN,NaN,NaN,NaN,NaN,NaN,NaN,NaN,NaN,NaN,NaN,NaN,NaN,NaN,NaN,NaN,NaN,NaN,NaN,NaN,NaN,NaN,8.36E0,NaN,NaN,NaN,NaN,7E-1,NaN,NaN,NaN,NaN,NaN,3.178281E-1,-1.5507807E-1,1.9490431E-1,5.327118E-2,-6.262995E-2,-5.782927E-1,1.6140242E-1,-1.3348776E-2,2.81778E-1,-5.750888E-2,1.4835477E-1,3.032523E-2,6.0967E-2,-1.7958269E-2,-8.955654E-3,-7.126495E-2,1.4366132E0,2.9518038E-1,1.1383671E-1,-1.6288881E-1,2.1806952E-1,-4.7919195E-2,-2.7606385E-2,-1.0128981E-1,1.6615787E-1,3.0376302E-2,5.4559756E-2,-3.429676E-2,1.0208961E-2,-6.3833736E-2,-7.3750652E-3,-9.23287E-2,5.6437645E-2,-6.444679E-2,1.7382185E-1,7.1084E-2,1.7485711E-1,1.7955443E-2,5.2649494E-2,-9.968137E-3,1.0834431E-2,6.353219E-1,-3.417315E-2,6.766823E-1,1.342181E-1,-3.4313386E-3,-2.9924495E-2,-1.2859717E-1,6.1208587E-2,-1.7521014E-2,9.491936E-2,-1.6952632E-2,1.1322366E-2,-2.5254436E-2,2.2549118E-1,-1.9832019E-2,-6.5366834E-2,1.1917536E-1,1.763521E-2,-3.4543428E-1,-1.6290124E-1,-2.0013968E-2,-1.6432388E-1,-3.4144926E-1],"split_indices":[1,0,0,4,1,4,0,3,5,0,0,5,5,6,5,4,2,0,0,4,5,5,5,3,6,6,5,5,2,4,4,1,5,5,5,5,5,4,5,5,4,4,5,1,4,6,6,5,6,5,5,3,2,6,4,0,6,2,4,3,5,3,5,0,0,0,0,0,0,0,0,0,0,0,0,0,0,0,0,0,0,0,0,0,0,0,0,0,0,0,0,0,0,0,0,0,0,0,0,0,0,0,0,0,0,0,0,0,0,0,0,0,0,0,0,0,0,0,0,0,0,0,0,0,0,0,0],"split_type":[1,1,1,1,1,1,1,1,1,1,1,1,1,1,1,1,0,1,1,1,1,1,1,1,1,1,1,1,0,1,1,1,1,1,1,1,1,1,1,1,1,1,1,1,1,1,1,1,1,1,1,1,0,1,1,1,1,0,1,1,1,1,1,0,0,0,0,0,0,0,0,0,0,0,0,0,0,0,0,0,0,0,0,0,0,0,0,0,0,0,0,0,0,0,0,0,0,0,0,0,0,0,0,0,0,0,0,0,0,0,0,0,0,0,0,0,0,0,0,0,0,0,0,0,0,0,0],"sum_hessian":[1.67056E5,5.6933E4,1.10123E5,3.6513E4,2.042E4,1.2139E4,9.7984E4,1.2582E4,2.3931E4,4.986E3,1.5434E4,7.476E3,4.663E3,9.6583E4,1.401E3,6.939E3,5.643E3,1.3199E4,1.0732E4,2.488E3,2.498E3,4.985E3,1.0449E4,2.069E3,5.407E3,3.92E2,4.271E3,1.5633E4,8.095E4,7.38E2,6.63E2,1.223E3,5.716E3,1.78E2,5.465E3,6.86E2,1.2513E4,4.935E3,5.797E3,6.42E2,1.846E3,6.11E2,1.887E3,2.465E3,2.52E3,5.741E3,4.708E3,5.65E2,1.504E3,9.95E2,4.412E3,1.43E2,2.49E2,1.838E3,2.433E3,4.722E3,1.0911E4,7.9292E4,1.658E3,6.47E2,9.1E1,4.41E2,2.22E2,1.001E3,2.22E2,1.849E3,3.867E3,6.4E1,1.14E2,9.19E2,4.546E3,5.65E2,1.21E2,7.96E2,1.1717E4,2.693E3,2.242E3,2.696E3,3.101E3,5.9E1,5.83E2,1.674E3,1.72E2,2.72E2,3.39E2,9.91E2,8.96E2,7.38E2,1.727E3,4.88E2,2.032E3,3.638E3,2.103E3,4.32E2,4.276E3,3.94E2,1.71E2,1.094E3,4.1E2,4.83E2,5.12E2,1.892E3,2.52E3,5E1,9.3E1,2.43E2,6E0,1.89E2,1.649E3,2.025E3,4.08E2,3.79E3,9.32E2,4.13E2,1.0498E4,7.558E3,7.1734E4,4.85E2,1.173E3,4.58E2,1.89E2,2.1E1,7E1,3.42E2,9.9E1,9.2E1,1.3E2],"tree_param":{"num_deleted":"0","num_feature":"7","num_nodes":"127","size_leaf_vector":"1"}},{"base_weights":[1.01508704E-4,5.559338E-2,-2.8587734E-2,1.6424821E-1,3.317381E-2,2.3754861E-2,-5.518515E-2,3.876789E-1,1.0362255E-1,7.970698E-2,-4.4899046E-2,9.47146E-2,-3.6918446E-2,-4.407158E-2,-1.3659939E-1,8.789553E-1,2.2145765E-1,1.9716474E-1,9.2685595E-3,2.723316E-1,2.9511161E-2,7.235844E-2,-1.6842124E-1,6.747414E-1,7.4749075E-2,8.8747635E-2,-1.7126347E-1,-2.5284402E-2,-8.606334E-2,-4.118147E-2,-2.1074054E-1,1.40779E0,4.455625E-1,3.2320124E-1,-2.1937673E-1,5.4883873E-1,1.398213E-1,4.234338E-3,2.74728E0,4.6532163E-1,7.862E-2,1.3776888E-1,-4.2337757E-2,1.2496005E-1,-3.1518915E-1,-8.700381E-2,-3.549487E-1,1.0779003E0,7.583379E-2,1.0302741E-1,-7.4867345E-2,7.3414016E-1,5.5865325E-2,-2.6865328E-2,-2.9277283E-1,1.1622776E-2,-7.2922096E-2,-3.2280892E-2,-1.802564E-1,-2.0060016E-1,5.301953E-2,-1.0810439E-1,-3.4146902E-1,4.6759313E-1,-2.2915952E-1,2.0039237E-1,1.0584243E-2,1.2625805E-1,3.991106E-2,7.0278764E-2,-1.1928828E-1,5.591867E-1,1.1313317E-1,9.089744E-2,2.1129936E-2,1.665689E-2,-7.084187E-2,1.6506313E0,1.6347882E-1,1.8214269E-1,1.093717E-2,9.892113E-2,-5.1140254E-3,1.4084868E-1,1.3694714E-2,2.2692727E-2,-4.5385513E-2,1.3823202E-1,7.362217E-3,-2.3212717E-1,-3.7681025E-2,6.7870595E-2,-4.3430567E-2,-6.825962E-2,-1.796942E-1,1.0390075E0,3.0077267E-1,7.833546E-2,-1.5986748E-1,6.030959E-2,1.5888007E-2,1.2965166E-2,-8.467242E-2,5.2146876E-1,1.361353E-1,1.3921826E-1,1.3084027E-3,4.0467985E-2,-6.879532E-2,-6.32651E-2,-1.3179895E-1,1.963173E-2,-2.114655E-2,3.7535063E-3,-3.340165E-2,-2.0525856E-2,4.6347667E-2,-4.1680522E-2,-9.956757E-2,3.4655154E-2,-1.0216147E-1,2.1935298E-1,5.06498E-3,3.1327453E-2,-4.1439913E-2,-8.746261E-2,-1.3292547E-1],"categories":[0,4,0,1,2,5,6,1,3,4,5,6,7,8,10,11,12,18,20,21,22,23,24,25,26,27,28,1,5,7,8,9,10,11,12,13,14,15,16,17,18,19,21,22,23,24,25,27,28,29,30,2,7,14,16,18,1,2,7,9,10,11,4,7,12,20,21,22,23,1,2,3,4,5,6,7,8,9,10,11,12,13,15,16,17,18,19,20,21,22,23,24,25,26,27,28,29,0,1,2,3,5,7,8,9,11,12,13,14,15,16,17,19,20,23,24,25,26,27,28,29,0,1,2,4,2,6,7,9,11,13,14,15,16,17,18,19,20,23,24,26,27,1,2,3,4,5,6,7,8,9,10,11,12,13,14,15,16,17,18,19,20,21,22,23,24,25,26,27,28,29,1,0,3,4,6,10,1,2,3,4,5,6,7,11,0,1,2,3,4,5,8,9,11,21,27,0,1,2,4,5,6,8,9,10,11,1,2,3,4,5,6,7,8,9,10,11,12,13,14,15,16,17,18,19,20,21,23,24,25,26,28,29,7,8,9,10,11,0,1,2,4,0,1,2,3,4,6,10,11,1,3,4,5,7,8,10,11,13,16,18,19,22,27,28,29,0,1,2,3,4,5,6,7,8,9,10,11,12,13,14,15,17,18,19,20,21,22,23,24,25,26,27,28,29,9,10,11,5,6,10,11,18,24,27,28,2,5,8,9,18,19,21,22,24,25,27,28,29,1,0,4,5,9,13,14,15,17,22,25,26,27,28,29,20,0,1,2,3,5,6,7,8,9,10,11,12,13,14,15,16,17,18,19,21,22,23,24,25,26,27,28,29,30,1,2,3,5,7,8,9,10,11,12,13,14,15,16,17,18,19,21,22,23,24,25,26,27,28,29,30,0,7,8,9,11,0,1,2,3,4,5,6,7,8,10,11,12,13,14,15,16,17,18,20,21,22,23,24,25,26,27,28,29,30,0,1,2,3,4,5,6,8,9,11,12,14,15,17,18,19,20,22,23,25,26,28,1,0,1,4,5,6,7,8,9,10,11,2,5,6,11,5,7,8,9,11,0,1,2,3,5,7,8,9,11,12,13,14,15,16,17,18,19,21,22,23,24,25,26,27,28,29,0,4,5,6,8,9,10,11,12,13,16,18,20,22,23,24,30,0,1,2,3,4,5,6,7,8,9,10,11,12,13,15,16,17,18,19,20,21,22,23,24,25,26,27,28,29,1,1,3,6,7,9,16,17,19,0,1,2,3,4,5,6,7,8,9,10,11,12,13,14,16,17,18,19,20,21,22,23,24,25,26,27,28,29,30,1,1,3,4,7,8,9,10,11,12,13,14,15,16,18,20,21,22,23,24,26,27,30,0,2,11,12,13,15,17,18,19,26,27,28,30,0,3,4,7,8,10,11,12,13,14,15,17,18,19,20,21,22,23,24,25,26,27,28,30,0,1,2,3,4,5,6,7,8,9,10,11,12,13,15,16,18,19,21,22,23,24,25,26,27,28,29,30,0,3,4,5,10,15,17,18,19,20,24,25,29,30,0,1,6,13,14,15,16,17,19,20,22,25,26,7,9,11,1,8,26,27,1,5,6,7,8,9,10,13,14,15,18,19,20,21,23,24,25,26,27,28,29,30,0,1,2,3,4,5,6,7,8,10,11,1,2,3,6,7,8,11,12,16,18,19,20,21,23,24,1,3,4],"categories_nodes":[0,1,2,3,4,5,6,7,8,9,10,11,12,13,14,15,16,17,19,20,21,22,23,24,25,26,27,28,29,30,31,32,33,34,35,36,37,38,39,40,41,42,43,44,45,46,47,48,49,50,51,52,53,54,55,56,57,58,59,60,61,62],"categories_segments":[0,2,7,27,51,56,62,69,97,121,125,142,171,172,177,185,194,196,206,233,238,242,250,266,267,295,298,306,319,320,334,335,364,391,396,425,447,448,458,462,467,493,510,539,540,542,548,578,579,601,614,638,649,666,680,693,696,697,700,722,733,748],"categories_sizes":[2,5,20,24,5,6,7,28,24,4,17,29,1,5,8,9,2,10,27,5,4,8,16,1,28,3,8,13,1,14,1,29,27,5,29,22,1,10,4,5,26,17,29,1,2,6,30,1,22,13,24,11,17,14,13,3,1,3,22,11,15,3],"default_left":[1,1,1,1,1,1,1,1,1,1,1,1,1,1,1,1,1,1,0,1,1,1,1,1,1,1,1,1,1,1,1,1,1,1,1,1,1,1,1,1,1,1,1,1,1,1,1,1,1,1,1,1,1,1,1,1,1,1,1,1,1,1,1,0,0,0,0,0,0,0,0,0,0,0,0,0,0,0,0,0,0,0,0,0,0,0,0,0,0,0,0,0,0,0,0,0,0,0,0,0,0,0,0,0,0,0,0,0,0,0,0,0,0,0,0,0,0,0,0,0,0,0,0,0,0,0,0],"id":8,"left_children":[1,3,5,7,9,11,13,15,17,19,21,23,25,27,29,31,33,35,37,39,41,43,45,47,49,51,53,55,57,59,61,63,65,67,69,71,73,75,77,79,81,83,85,87,89,91,93,95,97,99,101,103,105,107,109,111,113,115,117,119,121,123,125,-1,-1,-1,-1,-1,-1,-1,-1,-1,-1,-1,-1,-1,-1,-1,-1,-1,-1,-1,-1,-1,-1,-1,-1,-1,-1,-1,-1,-1,-1,-1,-1,-1,-1,-1,-1,-1,-1,-1,-1,-1,-1,-1,-1,-1,-1,-1,-1,-1,-1,-1,-1,-1,-1,-1,-1,-1,-1,-1,-1,-1,-1,-1,-1],"loss_changes":[2.6595963E2,1.3868544E2,1.533135E2,1.3186722E2,1.7146924E2,1.5975395E2,6.60627E1,1.6949606E2,6.761475E1,2.8592218E2,2.5530545E2,1.9801152E2,3.3771808E2,5.0685883E1,6.2033752E1,1.1969913E2,6.977104E1,7.7502625E1,5.257339E1,2.284943E2,1.824824E2,1.843866E2,1.3033075E2,1.3730609E2,6.9965706E1,2.1930954E2,1.696242E2,7.804965E1,1.0060359E2,5.7617386E1,6.61783E1,7.850473E1,2.6439388E1,2.339949E1,2.3704735E1,1.21026276E2,3.7443436E1,4.6972164E1,3.9471363E1,1.862143E2,7.3325516E1,2.8597656E2,1.812732E2,2.685182E2,9.388276E1,1.08181625E2,8.095618E1,5.762027E1,2.6080229E1,6.822865E1,6.43903E1,1.4024377E2,2.0678703E2,1.447462E2,6.2914856E1,1.10539665E2,6.3604958E1,8.534731E1,4.5180283E1,6.3076828E1,5.9096268E1,1.7666939E1,1.0880051E1,0E0,0E0,0E0,0E0,0E0,0E0,0E0,0E0,0E0,0E0,0E0,0E0,0E0,0E0,0E0,0E0,0E0,0E0,0E0,0E0,0E0,0E0,0E0,0E0,0E0,0E0,0E0,0E0,0E0,0E0,0E0,0E0,0E0,0E0,0E0,0E0,0E0,0E0,0E0,0E0,0E0,0E0,0E0,0E0,0E0,0E0,0E0,0E0,0E0,0E0,0E0,0E0,0E0,0E0,0E0,0E0,0E0,0E0,0E0,0E0,0E0,0E0,0E0,0E0],"parents":[2147483647,0,0,1,1,2,2,3,3,4,4,5,5,6,6,7,7,8,8,9,9,10,10,11,11,12,12,13,13,14,14,15,15,16,16,17,17,18,18,19,19,20,20,21,21,22,22,23,23,24,24,25,25,26,26,27,27,28,28,29,29,30,30,31,31,32,32,33,33,34,34,35,35,36,36,37,37,38,38,39,39,40,40,41,41,42,42,43,43,44,44,45,45,46,46,47,47,48,48,49,49,50,50,51,51,52,52,53,53,54,54,55,55,56,56,57,57,58,58,59,59,60,60,61,61,62,62],"right_children":[2,4,6,8,10,12,14,16,18,20,22,24,26,28,30,32,34,36,38,40,42,44,46,48,50,52,54,56,58,60,62,64,66,68,70,72,74,76,78,80,82,84,86,88,90,92,94,96,98,100,102,104,106,108,110,112,114,116,118,120,122,124,126,-1,-1,-1,-1,-1,-1,-1,-1,-1,-1,-1,-1,-1,-1,-1,-1,-1,-1,-1,-1,-1,-1,-1,-1,-1,-1,-1,-1,-1,-1,-1,-1,-1,-1,-1,-1,-1,-1,-1,-1,-1,-1,-1,-1,-1,-1,-1,-1,-1,-1,-1,-1,-1,-1,-1,-1,-1,-1,-1,-1,-1,-1,-1,-1],"split_conditions":[NaN,NaN,NaN,NaN,NaN,NaN,NaN,NaN,NaN,NaN,NaN,NaN,NaN,NaN,NaN,NaN,NaN,NaN,5E1,NaN,NaN,NaN,NaN,NaN,NaN,NaN,NaN,NaN,NaN,NaN,NaN,NaN,NaN,NaN,NaN,NaN,NaN,NaN,NaN,NaN,NaN,NaN,NaN,NaN,NaN,NaN,NaN,NaN,NaN,NaN,NaN,NaN,NaN,NaN,NaN,NaN,NaN,NaN,NaN,NaN,NaN,NaN,NaN,4.6759313E-1,-2.2915952E-1,2.0039237E-1,1.0584243E-2,1.2625805E-1,3.991106E-2,7.0278764E-2,-1.1928828E-1,5.591867E-1,1.1313317E-1,9.089744E-2,2.1129936E-2,1.665689E-2,-7.084187E-2,1.6506313E0,1.6347882E-1,1.8214269E-1,1.093717E-2,9.892113E-2,-5.1140254E-3,1.4084868E-1,1.3694714E-2,2.2692727E-2,-4.5385513E-2,1.3823202E-1,7.362217E-3,-2.3212717E-1,-3.7681025E-2,6.7870595E-2,-4.3430567E-2,-6.825962E-2,-1.796942E-1,1.0390075E0,3.0077267E-1,7.833546E-2,-1.5986748E-1,6.030959E-2,1.5888007E-2,1.2965166E-2,-8.467242E-2,5.2146876E-1,1.361353E-1,1.3921826E-1,1.3084027E-3,4.0467985E-2,-6.879532E-2,-6.32651E-2,-1.3179895E-1,1.963173E-2,-2.114655E-2,3.7535063E-3,-3.340165E-2,-2.0525856E-2,4.6347667E-2,-4.1680522E-2,-9.956757E-2,3.4655154E-2,-1.0216147E-1,2.1935298E-1,5.06498E-3,3.1327453E-2,-4.1439913E-2,-8.746261E-2,-1.3292547E-1],"split_indices":[1,6,0,5,0,4,0,0,0,1,5,0,3,4,4,4,0,4,2,0,4,4,4,5,3,0,4,0,5,3,5,5,5,5,4,5,5,3,4,4,4,0,5,0,3,1,5,5,3,5,5,5,4,5,5,5,4,3,0,5,4,5,6,0,0,0,0,0,0,0,0,0,0,0,0,0,0,0,0,0,0,0,0,0,0,0,0,0,0,0,0,0,0,0,0,0,0,0,0,0,0,0,0,0,0,0,0,0,0,0,0,0,0,0,0,0,0,0,0,0,0,0,0,0,0,0,0],"split_type":[1,1,1,1,1,1,1,1,1,1,1,1,1,1,1,1,1,1,0,1,1,1,1,1,1,1,1,1,1,1,1,1,1,1,1,1,1,1,1,1,1,1,1,1,1,1,1,1,1,1,1,1,1,1,1,1,1,1,1,1,1,1,1,0,0,0,0,0,0,0,0,0,0,0,0,0,0,0,0,0,0,0,0,0,0,0,0,0,0,0,0,0,0,0,0,0,0,0,0,0,0,0,0,0,0,0,0,0,0,0,0,0,0,0,0,0,0,0,0,0,0,0,0,0,0,0,0],"sum_hessian":[1.67056E5,5.6933E4,1.10123E5,9.737E3,4.7196E4,3.7104E4,7.3019E4,2.077E3,7.66E3,2.9571E4,1.7625E4,1.7102E4,2.0002E4,6.425E4,8.769E3,5.24E2,1.553E3,3.846E3,3.814E3,6.112E3,2.3459E4,9.042E3,8.583E3,5.68E2,1.6534E4,1.0335E4,9.667E3,4.4391E4,1.9859E4,3.835E3,4.934E3,2.35E2,2.89E2,1.262E3,2.91E2,5.38E2,3.308E3,3.808E3,6E0,3.061E3,3.051E3,9.358E3,1.4101E4,7.962E3,1.08E3,5.976E3,2.607E3,3.39E2,2.29E2,1.3906E4,2.628E3,5E2,9.835E3,4.418E3,5.249E3,2.5013E4,1.9378E4,1.2642E4,7.217E3,1.424E3,2.411E3,2.765E3,2.169E3,2.2E2,1.5E1,1.87E2,1.02E2,8.33E2,4.29E2,8.2E1,2.09E2,6.1E1,4.77E2,9.86E2,2.322E3,3.139E3,6.69E2,2E0,4E0,2.3E3,7.61E2,8.41E2,2.21E3,2.033E3,7.325E3,6.77E3,7.331E3,1.832E3,6.13E3,3.15E2,7.65E2,9.3E2,5.046E3,1.714E3,8.93E2,9E0,3.3E2,1.76E2,5.3E1,4.701E3,9.205E3,1.675E3,9.53E2,1.08E2,3.92E2,1.101E3,8.734E3,2.456E3,1.962E3,3.369E3,1.88E3,1.511E4,9.903E3,6.011E3,1.3367E4,1.0593E4,2.049E3,5.673E3,1.544E3,4.37E2,9.87E2,1.21E2,2.29E3,3.42E2,2.423E3,1.457E3,7.12E2],"tree_param":{"num_deleted":"0","num_feature":"7","num_nodes":"127","size_leaf_vector":"1"}},{"base_weights":[9.978582E-5,3.1799957E-2,-3.2639544E-2,1.2160446E-1,1.6031487E-2,2.2101463E-3,-9.1818534E-2,2.8073677E-1,6.607552E-2,6.546246E-2,-1.4056765E-2,4.271879E-2,-5.3550992E-2,-4.205153E-2,-1.367483E-1,2.3081162E0,2.4607426E-1,1.8982777E-1,-1.3533676E-3,1.12123415E-1,-1.4550139E-2,3.4950294E-2,-6.610037E-2,1.0336103E-1,-4.3544634E-3,2.195289E-2,-8.625571E-2,2.0021344E-2,-1.0346927E-1,-9.021063E-2,-1.8777916E-1,4.168438E0,8.407463E-1,5.571188E-1,2.6354257E-2,4.4168273E-1,1.4065899E-1,5.55587E-2,-1.351712E-1,1.6605574E-1,6.0160156E-2,1.5411345E0,-2.1067569E-2,1.22325614E-1,-2.3609666E-2,-3.493935E-2,-1.2546884E-1,1.4332262E-1,-5.1961087E-2,7.786929E-2,-5.7410933E-2,1.0980225E0,2.9776532E-3,-2.7572159E-2,-1.1887422E-1,1.0192278E-1,-6.842473E-2,1.1248526E-1,-1.4532317E-1,-4.1554008E-2,-1.389271E-1,-4.9758695E-2,-2.0812312E-1,2.119047E0,9.7087604E-1,3.589156E-1,1.5911033E-2,2.461939E-1,1.1362627E-1,3.870248E-2,-4.5998573E-2,2.1161142E-1,2.4618886E-2,1.0938904E-1,3.3948135E-2,-3.2591466E-2,3.0868217E-2,1.6246911E-2,-1.0426934E-1,1.0117987E-1,3.0541198E-2,2.929338E-2,-5.698565E-2,5.456026E0,7.6255426E-2,4.7961017E-3,-3.0209929E-2,5.781833E-2,4.1560057E-4,6.632677E-3,-3.2309666E-2,1.5587949E-2,-1.7068662E-2,-2.6891885E-2,-8.016977E-2,1.0371236E-1,3.1347595E-2,3.119795E-2,-3.126142E-2,1.1223602E-1,9.293471E-3,7.272956E-2,-2.417727E-2,1.1721495E0,-2.840388E-2,3.4002427E-2,-2.3371002E-2,1.8216271E-2,-3.0272145E-2,-4.1223958E-2,-6.330666E-3,7.062553E-2,1.2471409E-2,1.4317236E-2,-4.0718075E-2,3.0079737E-1,1.2213736E-2,-3.1951096E-2,-8.104655E-2,-6.807652E-4,-3.6036592E-2,-2.3065696E-2,-5.4985072E-2,5.1422447E-2,-3.7902452E-2,7.911326E-3,-6.630924E-2],"categories":[0,5,6,0,1,4,3,7,8,11,12,13,18,19,21,22,27,28,30,1,2,3,4,5,7,8,9,10,11,12,13,14,15,17,18,19,20,21,22,23,24,25,26,28,29,0,1,4,5,7,9,11,12,15,20,22,23,24,25,26,27,28,2,3,7,8,11,12,15,17,19,21,26,27,28,1,3,4,5,6,7,9,11,13,16,18,25,26,28,0,1,4,5,6,7,8,9,10,11,0,1,2,3,4,7,8,9,14,15,16,18,19,21,22,24,25,26,27,29,1,4,9,10,16,17,18,19,23,24,29,0,4,5,6,7,11,13,14,15,16,17,20,23,24,26,29,3,5,6,7,8,9,10,11,12,13,14,15,17,18,19,20,21,22,23,25,26,27,28,30,1,2,3,4,6,7,8,10,11,1,2,3,4,5,7,10,8,12,19,21,22,27,30,0,2,3,6,8,9,10,11,13,14,15,16,21,22,23,24,25,26,27,28,29,30,5,6,9,12,13,14,16,18,19,20,21,23,24,25,26,28,29,30,0,1,4,5,6,7,8,9,10,11,1,3,5,6,10,11,0,1,2,3,4,5,9,11,0,1,2,3,5,6,0,1,3,4,5,6,7,10,0,2,3,10,11,1,2,4,5,11,0,2,6,7,9,10,11,0,1,2,3,4,5,6,7,8,9,10,11,12,13,14,15,16,17,18,19,20,21,22,23,24,26,27,28,29,30,0,1,2,4,9,10,16,17,25,26,29,7,11,13,18,21,28,0,2,10,12,14,15,19,22,27,0,2,3,5,7,8,0,1,2,3,4,6,7,8,9,10,11,12,13,14,15,16,18,20,21,22,23,24,25,26,27,28,29,30,1,2,3,4,5,6,7,8,9,10,11,12,13,14,15,16,17,18,19,20,21,22,23,24,25,26,27,28,29,6,12,13,16,24,30,0,1,2,3,4,5,6,7,8,9,10,11,12,13,14,15,16,17,18,19,20,23,24,25,26,27,28,29,0,1,2,3,4,5,6,7,8,9,10,11,12,13,15,16,17,18,19,20,21,22,23,24,25,26,27,28,29,0,7,8,9,18,19,24,26,1,2,3,4,5,7,9,10,11,12,13,14,15,16,17,18,19,23,24,25,26,27,28,29,30,0,6,20,0,1,2,3,4,5,6,7,8,9,10,11,12,13,14,15,16,17,18,20,21,22,23,24,25,26,27,28,29,1,1,1,4,9,11,27,4,5,7,11,13,14,15,16,17,20,23,24,29,0,6,16,24,0,1,2,3,5,6,7,8,9,10,11,12,15,16,17,18,19,20,21,22,24,25,26,27,28,29,0,6,13,14,18,25,1,2,3,4,5,7,8,9,11,12,14,15,16,17,18,19,20,21,22,23,24,25,26,27,28,29,0,1,3,4,5,6,7,8,9,10,11,12,13,14,15,16,17,18,19,20,21,22,23,24,25,26,27,28,29,2,3,4,5,6,7,8,9,11,12,13,14,15,16,17,18,19,21,22,23,24,25,27,28,29,30,2,8,11,12,17,21,28,0,0,1,2,3,4,5,6,7,9,10,11,0,2,8,12,19,21,0,1,2,4,5,6,7,8,9,10,11,14,1,4,6,7,9,13,1,3,4,13,18,25,26,28,19,21,22,27,30,1,5,6,7,9,11,16,18,25,26],"categories_nodes":[0,1,2,3,4,5,6,7,8,9,10,11,12,13,14,15,16,17,18,19,20,21,22,23,24,25,26,27,28,29,31,32,34,35,36,38,39,40,41,42,43,44,45,46,47,48,49,51,52,53,54,55,56,57,58,59,60,61,62],"categories_segments":[0,3,6,19,45,62,75,89,99,119,130,146,170,179,186,193,215,233,243,249,257,263,271,276,281,288,318,329,335,344,350,378,407,413,441,470,478,503,506,535,536,537,542,555,559,585,591,617,646,672,679,680,691,697,708,709,715,723,728],"categories_sizes":[3,3,13,26,17,13,14,10,20,11,16,24,9,7,7,22,18,10,6,8,6,8,5,5,7,30,11,6,9,6,28,29,6,28,29,8,25,3,29,1,1,5,13,4,26,6,26,29,26,7,1,11,6,11,1,6,8,5,10],"default_left":[1,1,1,1,1,1,1,1,1,1,1,1,1,1,1,1,1,1,1,1,1,1,1,1,1,1,1,1,1,1,0,1,1,0,1,1,1,0,1,1,1,1,1,1,1,1,1,1,1,1,0,1,1,1,1,1,1,1,1,1,1,1,1,0,0,0,0,0,0,0,0,0,0,0,0,0,0,0,0,0,0,0,0,0,0,0,0,0,0,0,0,0,0,0,0,0,0,0,0,0,0,0,0,0,0,0,0,0,0,0,0,0,0,0,0,0,0,0,0,0,0,0,0,0,0,0,0],"id":9,"left_children":[1,3,5,7,9,11,13,15,17,19,21,23,25,27,29,31,33,35,37,39,41,43,45,47,49,51,53,55,57,59,61,63,65,67,69,71,73,75,77,79,81,83,85,87,89,91,93,95,97,99,101,103,105,107,109,111,113,115,117,119,121,123,125,-1,-1,-1,-1,-1,-1,-1,-1,-1,-1,-1,-1,-1,-1,-1,-1,-1,-1,-1,-1,-1,-1,-1,-1,-1,-1,-1,-1,-1,-1,-1,-1,-1,-1,-1,-1,-1,-1,-1,-1,-1,-1,-1,-1,-1,-1,-1,-1,-1,-1,-1,-1,-1,-1,-1,-1,-1,-1,-1,-1,-1,-1,-1,-1],"loss_changes":[1.7337987E2,1.2018922E2,1.6948987E2,1.12001114E2,1.0738338E2,1.1683688E2,6.8101166E1,2.2986066E2,7.842999E1,1.0199615E2,1.14474014E2,8.55251E1,5.374692E1,5.510234E1,3.7997375E1,1.4663333E2,2.2039052E2,4.0988846E1,4.6349953E1,4.834993E1,1.02072014E2,1.1828041E2,4.0264183E1,8.12746E1,7.359115E1,1.343312E2,2.906723E1,5.208309E1,6.5681335E1,1.984378E1,2.1425018E1,4.1910126E1,8.901033E0,6.2439484E1,3.489958E1,5.1243874E1,1.704963E1,3.3198982E1,7.304363E1,9.31075E1,8.242761E1,8.9510425E2,2.9576845E1,7.897981E1,5.3213284E1,2.7241205E1,3.8030037E1,8.18049E1,2.1846455E1,9.189464E1,7.128142E1,3.8232346E2,5.7726486E1,3.514579E1,1.7689804E1,3.0065697E1,2.703009E1,7.534961E1,2.9463486E1,1.2935356E1,1.15000305E1,1.6654358E1,2.0142975E1,0E0,0E0,0E0,0E0,0E0,0E0,0E0,0E0,0E0,0E0,0E0,0E0,0E0,0E0,0E0,0E0,0E0,0E0,0E0,0E0,0E0,0E0,0E0,0E0,0E0,0E0,0E0,0E0,0E0,0E0,0E0,0E0,0E0,0E0,0E0,0E0,0E0,0E0,0E0,0E0,0E0,0E0,0E0,0E0,0E0,0E0,0E0,0E0,0E0,0E0,0E0,0E0,0E0,0E0,0E0,0E0,0E0,0E0,0E0,0E0,0E0,0E0,0E0,0E0],"parents":[2147483647,0,0,1,1,2,2,3,3,4,4,5,5,6,6,7,7,8,8,9,9,10,10,11,11,12,12,13,13,14,14,15,15,16,16,17,17,18,18,19,19,20,20,21,21,22,22,23,23,24,24,25,25,26,26,27,27,28,28,29,29,30,30,31,31,32,32,33,33,34,34,35,35,36,36,37,37,38,38,39,39,40,40,41,41,42,42,43,43,44,44,45,45,46,46,47,47,48,48,49,49,50,50,51,51,52,52,53,53,54,54,55,55,56,56,57,57,58,58,59,59,60,60,61,61,62,62],"right_children":[2,4,6,8,10,12,14,16,18,20,22,24,26,28,30,32,34,36,38,40,42,44,46,48,50,52,54,56,58,60,62,64,66,68,70,72,74,76,78,80,82,84,86,88,90,92,94,96,98,100,102,104,106,108,110,112,114,116,118,120,122,124,126,-1,-1,-1,-1,-1,-1,-1,-1,-1,-1,-1,-1,-1,-1,-1,-1,-1,-1,-1,-1,-1,-1,-1,-1,-1,-1,-1,-1,-1,-1,-1,-1,-1,-1,-1,-1,-1,-1,-1,-1,-1,-1,-1,-1,-1,-1,-1,-1,-1,-1,-1,-1,-1,-1,-1,-1,-1,-1,-1,-1,-1,-1,-1,-1],"split_conditions":[NaN,NaN,NaN,NaN,NaN,NaN,NaN,NaN,NaN,NaN,NaN,NaN,NaN,NaN,NaN,NaN,NaN,NaN,NaN,NaN,NaN,NaN,NaN,NaN,NaN,NaN,NaN,NaN,NaN,NaN,1.042E0,NaN,NaN,1.12E0,NaN,NaN,NaN,5.4E-1,NaN,NaN,NaN,NaN,NaN,NaN,NaN,NaN,NaN,NaN,NaN,NaN,3.6E-1,NaN,NaN,NaN,NaN,NaN,NaN,NaN,NaN,NaN,NaN,NaN,NaN,2.119047E0,9.7087604E-1,3.589156E-1,1.5911033E-2,2.461939E-1,1.1362627E-1,3.870248E-2,-4.5998573E-2,2.1161142E-1,2.4618886E-2,1.0938904E-1,3.3948135E-2,-3.2591466E-2,3.0868217E-2,1.6246911E-2,-1.0426934E-1,1.0117987E-1,3.0541198E-2,2.929338E-2,-5.698565E-2,5.456026E0,7.6255426E-2,4.7961017E-3,-3.0209929E-2,5.781833E-2,4.1560057E-4,6.632677E-3,-3.2309666E-2,1.5587949E-2,-1.7068662E-2,-2.6891885E-2,-8.016977E-2,1.0371236E-1,3.1347595E-2,3.119795E-2,-3.126142E-2,1.1223602E-1,9.293471E-3,7.272956E-2,-2.417727E-2,1.1721495E0,-2.840388E-2,3.4002427E-2,-2.3371002E-2,1.8216271E-2,-3.0272145E-2,-4.1223958E-2,-6.330666E-3,7.062553E-2,1.2471409E-2,1.4317236E-2,-4.0718075E-2,3.0079737E-1,1.2213736E-2,-3.1951096E-2,-8.104655E-2,-6.807652E-4,-3.6036592E-2,-2.3065696E-2,-5.4985072E-2,5.1422447E-2,-3.7902452E-2,7.911326E-3,-6.630924E-2],"split_indices":[6,1,5,0,0,0,0,4,5,5,5,5,4,4,5,5,5,4,4,4,6,4,4,4,4,5,5,5,0,4,2,5,0,2,5,0,0,2,5,5,5,0,6,3,0,5,5,0,0,0,2,0,5,0,3,4,0,4,0,0,0,5,0,0,0,0,0,0,0,0,0,0,0,0,0,0,0,0,0,0,0,0,0,0,0,0,0,0,0,0,0,0,0,0,0,0,0,0,0,0,0,0,0,0,0,0,0,0,0,0,0,0,0,0,0,0,0,0,0,0,0,0,0,0,0,0,0],"split_type":[1,1,1,1,1,1,1,1,1,1,1,1,1,1,1,1,1,1,1,1,1,1,1,1,1,1,1,1,1,1,0,1,1,0,1,1,1,0,1,1,1,1,1,1,1,1,1,1,1,1,0,1,1,1,1,1,1,1,1,1,1,1,1,0,0,0,0,0,0,0,0,0,0,0,0,0,0,0,0,0,0,0,0,0,0,0,0,0,0,0,0,0,0,0,0,0,0,0,0,0,0,0,0,0,0,0,0,0,0,0,0,0,0,0,0,0,0,0,0,0,0,0,0,0,0,0,0],"sum_hessian":[1.67056E5,8.4875E4,8.2181E4,1.2676E4,7.2199E4,5.1723E4,3.0458E4,3.278E3,9.398E3,2.7318E4,4.4881E4,2.9959E4,2.1764E4,1.4452E4,1.6006E4,5.4E1,3.224E3,3.314E3,6.084E3,1.7255E4,1.0063E4,2.3115E4,2.1766E4,1.3092E4,1.6867E4,6.578E3,1.5186E4,7.188E3,7.264E3,8.373E3,7.633E3,2.3E1,3.1E1,1.334E3,1.89E3,5.4E2,2.774E3,4.269E3,1.815E3,8.466E3,8.789E3,4.1E1,1.0022E4,9.275E3,1.384E4,1.4275E4,7.491E3,1.0413E4,2.679E3,6.615E3,1.0252E4,1.13E2,6.465E3,5.426E3,9.76E3,3.732E3,3.456E3,1.179E3,6.085E3,4.19E3,4.183E3,9.81E2,6.652E3,4E0,1.9E1,2.1E1,1E1,5.37E2,7.97E2,1.203E3,6.87E2,3.11E2,2.29E2,3.02E2,2.472E3,9.55E2,3.314E3,9.6E2,8.55E2,2.309E3,6.157E3,7.644E3,1.145E3,2E0,3.9E1,6.84E3,3.182E3,5.862E3,3.413E3,8.966E3,4.874E3,2.879E3,1.1396E4,5.981E3,1.51E3,1.675E3,8.738E3,6.72E2,2.007E3,9.03E2,5.712E3,7.35E2,9.517E3,3.3E1,8E1,2.734E3,3.731E3,2.462E3,2.964E3,8.204E3,1.556E3,1.161E3,2.571E3,1.268E3,2.188E3,8.7E1,1.092E3,4.643E3,1.442E3,2.794E3,1.396E3,1.745E3,2.438E3,2.52E2,7.29E2,3.47E2,6.305E3],"tree_param":{"num_deleted":"0","num_feature":"7","num_nodes":"127","size_leaf_vector":"1"}},{"base_weights":[1.3653001E-4,5.1702436E-2,-1.016643E-2,1.0690544E-1,-1.4823145E-3,3.3850145E-2,-2.1980543E-2,1.4408565E-1,4.456627E-3,2.9963957E-2,-2.2380805E-1,1.680439E-1,-1.4734859E-2,-4.915189E-1,-1.672533E-2,3.927902E-1,1.2853293E-1,1.5420693E-1,-6.391334E-2,5.7908002E-2,-6.290789E-2,-9.35011E-2,-4.216582E-1,2.8612435E-1,3.439857E-2,1.700035E-1,-4.2616326E-2,-2.8331274E-1,-1.1825554E0,1.6106012E-1,-2.4180034E-2,1.4957678E0,1.5870498E-1,1.9361226E-1,8.13251E-2,4.6624416E-1,5.4940842E-2,2.6443746E-2,-1.9852942E-1,2.3746157E-1,2.9817194E-2,5.2935645E-2,-1.7054023E-1,5.9434913E-2,-2.4144006E-1,-8.1946486E-1,-2.4010922E-1,3.3959985E-1,-3.155141E-2,5.798227E-2,-6.770014E-1,4.3560546E-2,3.8034466E-1,-6.53563E-3,-1.0646231E-1,2.5002843E-1,-3.8473493E-1,-8.670797E-1,-1.5371681E0,4.9111885E-1,-2.113884E-2,2.7020155E-2,-4.4168405E-2,6.502738E-1,3.8581148E-2,1.4197029E-1,-1.8080754E-2,7.354404E-2,-1.4719163E-2,4.7929626E-2,2.7807297E-3,5.133542E-1,1.2384244E-1,-4.6356656E-3,9.478147E-2,1.218546E-1,-8.248043E-3,-5.2244287E-2,-2.1779524E-1,1.346175E-1,-5.7197204E-3,2.391018E-2,-1.641136E-2,5.347553E-2,-3.304395E-2,-4.1352328E-2,-1.2138172E-1,2.9446E-1,-7.6173944E-3,-5.3899955E-2,-1.7965798E-1,-1.796735E-1,-4.703777E-1,-1.2891155E-1,2.4332738E-2,1.5084821E-1,7.079826E-2,1.0132865E-1,-5.8330275E-2,2.6500545E-2,-9.966742E-2,5.200205E-1,-2.2648638E-1,6.501379E-2,-1.0284091E-2,1.2564282E-1,-1.502487E-1,2.925673E-2,-8.437447E-3,1.3090302E-1,-3.591521E-2,3.9496115E-1,3.6532603E-2,-8.89112E-2,-3.1943774E-1,-5.3329226E-2,-2.7921814E-1,6.7791045E-2,-4.7407717E-1,2.1459311E-1,3.886716E-2,4.2435116E-1,-1.5552868E-2,1.7904676E-2,-1.9738002E-2,-1.4242886E-3,-2.2810217E-2],"categories":[0,1,2,5,6,1,2,5,8,12,14,16,17,19,21,24,25,26,28,29,30,1,5,7,8,11,15,16,17,19,20,23,24,25,27,29,0,1,7,15,21,23,28,0,2,3,4,7,8,9,10,11,12,13,15,16,23,24,26,28,29,0,1,2,3,4,5,7,8,9,10,11,1,2,4,5,6,7,8,9,10,12,13,14,16,17,18,19,20,21,22,23,24,25,26,28,29,30,1,5,8,19,24,2,12,19,25,26,28,29,0,1,2,9,10,11,12,13,18,20,21,24,28,29,30,0,1,2,3,5,7,9,10,11,12,13,14,15,16,17,18,19,20,21,22,23,25,26,27,28,29,8,9,1,2,3,4,5,6,7,8,9,10,11,12,13,14,17,18,19,20,21,22,24,25,26,27,28,29,0,1,2,3,4,5,7,8,9,10,11,12,13,14,15,16,17,18,19,20,21,22,23,24,25,26,27,28,29,30,0,1,2,3,4,5,6,7,8,11,12,14,15,16,17,18,19,21,24,25,26,27,28,29,30,0,1,2,6,7,9,10,11,0,2,5,8,10,11,0,1,2,6,7,8,9,10,11,12,15,16,17,18,19,20,21,22,23,24,25,26,27,28,29,8,10,14,19,25,26,27,0,4,0,2,3,4,10,11,3,11,2,1,2,10,13,19,23,25,26,27,0,12,14,15,21,22,0,1,3,3,4,7,8,9,10,11,12,13,14,16,20,22,23,25,26,27,29,30,3,4,5,6,7,8,9,11,12,13,14,15,16,17,18,19,20,21,22,23,24,25,26,0,1,2,3,4,5,7,8,9,10,11,12,13,15,16,17,18,19,20,21,22,23,24,25,26,27,28,29,1,2,3,5,7,8,9,10,11,12,14,15,16,17,19,20,22,23,24,25,26,27,28,29,1,4,5,7,8,11,15,16,17,18,19,20,22,23,24,25,27,28,29,0,1,2,3,4,6,7,8,11,0,1,2,3,4,5,6,7,8,9,10,12,13,14,15,16,17,18,19,20,21,22,23,24,25,26,27,28,29,30,0,1,2,3,5,6,7,8,9,10,11,12,13,14,15,16,17,18,19,20,21,22,23,24,25,26,27,28,29,30,20,0,1,3,4,5,6,7,8,9,10,11,12,13,15,16,17,18,19,20,21,22,23,24,25,27,30,4,6,7,9,10,2,3,7,9,10,11,1,0,2,3,4,5,6,7,8,9,10,11,12,13,14,15,16,17,18,19,20,21,22,23,24,25,26,27,28,29,3,8,9,1,0,2,4,0,1,2,4,5,7,8,9,10,11,12,13,15,16,17,18,19,20,21,22,23,24,25,27,28,29,30,19,21,0,1,2,3,4,5,6,7,8,9,10,11,12,13,14,15,16,17,18,19,20,22,23,24,25,26,27,28,29,1,2,3,4,5,6,7,8,9,10,11,12,14,16,17,18,19,20,21,22,23,24,25,26,27,28,29,0,1,3,4,6,2,3,4,5,7,8,9,11,1,3,4,5,6,7,8,9,10,11,0,1,2,3,4,5,6,7,8,9,10,11,13,15,16,17,18,19,20,21,23,24,26,27,28,30,7,8,9,12,19,21,23,0,15,0,1,2,10,18,23,24,25,26,27,5,7,10,11,0,1,4,5,6,7,8,9,10,11,1,3,5,7,8,11,12,13,18,20,26,27,0,1,2,4,7,9,10,11],"categories_nodes":[0,1,3,4,5,7,8,9,10,11,12,13,14,15,16,17,18,19,20,21,23,24,25,26,27,28,29,30,31,32,33,34,35,37,38,39,40,41,42,43,44,46,47,48,49,50,51,52,53,54,55,56,57,58,59,60,61,62],"categories_segments":[0,5,21,36,43,61,72,98,103,110,125,151,153,179,209,234,242,248,273,280,282,288,290,291,300,306,309,328,351,379,403,422,431,461,491,492,518,523,529,530,559,562,563,566,593,595,624,651,656,664,674,700,707,709,719,723,733,745],"categories_sizes":[5,16,15,7,18,11,26,5,7,15,26,2,26,30,25,8,6,25,7,2,6,2,1,9,6,3,19,23,28,24,19,9,30,30,1,26,5,6,1,29,3,1,3,27,2,29,27,5,8,10,26,7,2,10,4,10,12,8],"default_left":[1,1,0,1,1,1,0,1,1,1,1,1,1,1,1,1,1,1,1,1,1,1,0,1,1,1,1,1,1,1,1,1,1,1,1,1,0,1,1,1,1,1,1,1,1,0,1,1,1,1,1,1,1,1,1,1,1,1,1,1,1,1,1,0,0,0,0,0,0,0,0,0,0,0,0,0,0,0,0,0,0,0,0,0,0,0,0,0,0,0,0,0,0,0,0,0,0,0,0,0,0,0,0,0,0,0,0,0,0,0,0,0,0,0,0,0,0,0,0,0,0,0,0,0,0,0,0],"id":10,"left_children":[1,3,5,7,9,11,13,15,17,19,21,23,25,27,29,31,33,35,37,39,41,43,45,47,49,51,53,55,57,59,61,63,65,67,69,71,73,75,77,79,81,83,85,87,89,91,93,95,97,99,101,103,105,107,109,111,113,115,117,119,121,123,125,-1,-1,-1,-1,-1,-1,-1,-1,-1,-1,-1,-1,-1,-1,-1,-1,-1,-1,-1,-1,-1,-1,-1,-1,-1,-1,-1,-1,-1,-1,-1,-1,-1,-1,-1,-1,-1,-1,-1,-1,-1,-1,-1,-1,-1,-1,-1,-1,-1,-1,-1,-1,-1,-1,-1,-1,-1,-1,-1,-1,-1,-1,-1,-1],"loss_changes":[8.875482E1,8.16785E1,7.240683E1,5.199695E1,9.907364E1,1.9210197E2,2.708642E2,3.8691727E1,3.7236767E1,3.2223236E1,4.5232445E1,1.2358617E2,1.11434006E2,1.744768E2,1.4388391E2,1.5183698E2,2.8949463E1,3.528556E1,3.037755E1,4.8130993E1,3.581859E1,2.3997055E1,5.0141556E1,7.064627E1,6.1696358E1,7.543672E1,4.330022E1,5.0672813E1,3.0103119E1,2.627461E2,1.06633194E2,9.432428E1,3.3570053E1,4.9574097E1,3.0892872E1,1.7587841E1,1.5915384E1,3.0631798E1,1.2772453E1,6.997408E1,3.4805138E1,2.8304195E1,1.1340649E1,4.0854782E1,1.1793039E1,3.5047394E1,2.9267668E1,6.0068634E1,3.6158577E1,4.2169968E1,2.3480656E1,2.3904463E1,3.630696E1,2.698581E1,4.8884186E1,2.0357136E1,4.691736E1,6.4593887E0,1.0309387E1,1.2587311E2,1.24202736E2,8.869301E1,9.41344E1,0E0,0E0,0E0,0E0,0E0,0E0,0E0,0E0,0E0,0E0,0E0,0E0,0E0,0E0,0E0,0E0,0E0,0E0,0E0,0E0,0E0,0E0,0E0,0E0,0E0,0E0,0E0,0E0,0E0,0E0,0E0,0E0,0E0,0E0,0E0,